{"learner":{"attributes":{"best_iteration":"32","best_ntree_limit":"33","best_score":"7.349776","scikit_learn":"{\"n_estimators\": 100, \"objective\": \"reg:squarederror\", \"max_depth\": null, \"learning_rate\": null, \"verbosity\": null, \"booster\": null, \"tree_method\": null, \"gamma\": null, \"min_child_weight\": null, \"max_delta_step\": null, \"subsample\": null, \"colsample_bytree\": null, \"colsample_bylevel\": null, \"colsample_bynode\": null, \"reg_alpha\": null, \"reg_lambda\": null, \"scale_pos_weight\": null, \"base_score\": null, \"missing\": NaN, \"num_parallel_tree\": null, \"random_state\": 42, \"n_jobs\": null, \"monotone_constraints\": null, \"interaction_constraints\": null, \"importance_type\": null, \"gpu_id\": null, \"validate_parameters\": null, \"predictor\": null, \"enable_categorical\": false, \"kwargs\": {\"warm_start\": true}, \"evals_result_\": {\"validation_0\": {\"rmse\": [291.833069, 208.183243, 148.007248, 106.109375, 76.972496, 56.062698, 41.30444, 30.529127, 22.843111, 17.644175, 14.145554, 11.674807, 10.106169, 9.228453, 8.588579, 8.123022, 7.779561, 7.602248, 7.484427, 7.424368, 7.445373, 7.40387, 7.39118, 7.365905, 7.376287, 7.387705, 7.381199, 7.373388, 7.3615, 7.359567, 7.356328, 7.350296, 7.349776, 7.365281, 7.360033, 7.361575, 7.362145, 7.363188, 7.351914, 7.352885, 7.351391, 7.357549, 7.3598]}}, \"_estimator_type\": \"regressor\"}"},"feature_names":[],"feature_types":[],"gradient_booster":{"model":{"gbtree_model_param":{"num_trees":"43","size_leaf_vector":"0"},"tree_info":[0,0,0,0,0,0,0,0,0,0,0,0,0,0,0,0,0,0,0,0,0,0,0,0,0,0,0,0,0,0,0,0,0,0,0,0,0,0,0,0,0,0,0],"trees":[{"base_weights":[3.9745435E2,2.926978E2,5.046433E2,2.524888E2,3.6130655E2],"categories":[],"categories_nodes":[],"categories_segments":[],"categories_sizes":[],"default_left":[true,true,false,false,false],"id":0,"left_children":[1,3,-1,-1,-1],"loss_changes":[2.041896E6,1.87402E5,0E0,0E0,0E0],"parents":[2147483647,0,0,1,1],"right_children":[2,4,-1,-1,-1],"split_conditions":[-4.5371954E-3,-6.6226023E-1,1.51393E2,7.574664E1,1.0839197E2],"split_indices":[0,0,0,0,0],"split_type":[0,0,0,0,0],"sum_hessian":[1.94E2,1E2,9.4E1,6.6E1,3.4E1],"tree_param":{"num_deleted":"0","num_feature":"48","num_nodes":"5","size_leaf_vector":"0"}},{"base_weights":[2.799387E2,2.0763423E2,3.5700775E2,1.7357816E2,2.5111761E2,1.2895775E2,1.8657747E2],"categories":[],"categories_nodes":[],"categories_segments":[],"categories_sizes":[],"default_left":[true,true,false,true,false,false,false],"id":1,"left_children":[1,3,-1,5,-1,-1,-1],"loss_changes":[1.012498E6,1.089415E5,0E0,1.13215E4,0E0,0E0,0E0],"parents":[2147483647,0,0,1,1,3,3],"right_children":[2,4,-1,6,-1,-1,-1],"split_conditions":[-6.7157336E-3,-8.9978826E-1,1.0710233E2,-1.3504617E0,7.533529E1,3.8687325E1,5.5973244E1],"split_indices":[5,0,0,0,0,0,0],"split_type":[0,0,0,0,0,0,0],"sum_hessian":[1.94E2,1.02E2,9.2E1,6E1,4.2E1,1.6E1,4.4E1],"tree_param":{"num_deleted":"0","num_feature":"48","num_nodes":"7","size_leaf_vector":"0"}},{"base_weights":[1.9737811E2,1.3087733E2,2.3966354E2,9.449969E1,1.4021564E2,2.0375342E2,2.6677908E2],"categories":[],"categories_nodes":[],"categories_segments":[],"categories_sizes":[],"default_left":[true,true,true,false,false,false,false],"id":2,"left_children":[1,3,5,-1,-1,-1,-1],"loss_changes":[5.16977E5,1.3246625E4,6.0542E4,0E0,0E0,0E0,0E0],"parents":[2147483647,0,0,1,1,2,2],"right_children":[2,4,6,-1,-1,-1,-1],"split_conditions":[-2.2174636E-1,-1.2380981E0,7.9006314E-1,2.8349907E1,4.2064693E1,6.1126026E1,8.003373E1],"split_indices":[0,0,0,0,0,0,0],"split_type":[0,0,0,0,0,0,0],"sum_hessian":[1.94E2,7.7E1,1.17E2,1.8E1,5.9E1,5.4E1,6.3E1],"tree_param":{"num_deleted":"0","num_feature":"48","num_nodes":"7","size_leaf_vector":"0"}},{"base_weights":[1.3924966E2,1.0390559E2,1.8017738E2,8.210531E1,1.2229325E2,1.6244945E2,2.0407701E2,5.64159E1,8.6170166E1],"categories":[],"categories_nodes":[],"categories_segments":[],"categories_sizes":[],"default_left":[true,true,true,true,false,false,false,false,false],"id":3,"left_children":[1,3,5,7,-1,-1,-1,-1,-1],"loss_changes":[2.633565E5,3.2850625E4,4.55625E3,5.6865625E2,0E0,0E0,0E0,0E0,0E0],"parents":[2147483647,0,0,1,1,2,2,3,3],"right_children":[2,4,6,8,-1,-1,-1,-1,-1],"split_conditions":[4.9482712E-1,-1.0123551E0,1.026948E0,-1.5268255E0,3.6687977E1,4.8734837E1,6.1223106E1,1.692477E1,2.5851051E1],"split_indices":[0,0,0,0,0,0,0,0,0],"split_type":[0,0,0,0,0,0,0,0,0],"sum_hessian":[1.94E2,1.06E2,8.8E1,5.1E1,5.5E1,5.5E1,3.3E1,9E0,4.2E1],"tree_param":{"num_deleted":"0","num_feature":"48","num_nodes":"9","size_leaf_vector":"0"}},{"base_weights":[9.844616E1,6.2925266E1,1.19649635E2,4.398666E1,6.6550735E1,1.1138803E2,1.5813889E2],"categories":[],"categories_nodes":[],"categories_segments":[],"categories_sizes":[],"default_left":[true,true,true,false,false,false,false],"id":4,"left_children":[1,3,5,-1,-1,-1,-1],"loss_changes":[1.393385E5,2.2222812E3,2.086125E4,0E0,0E0,0E0,0E0],"parents":[2147483647,0,0,1,1,2,2],"right_children":[2,4,6,-1,-1,-1,-1],"split_conditions":[-3.3817372E-1,-1.3935692E0,1.1342322E0,1.3195998E1,1.9965221E1,3.3416412E1,4.7441666E1],"split_indices":[0,25,0,0,0,0,0],"split_type":[0,0,0,0,0,0,0],"sum_hessian":[1.94E2,7.4E1,1.2E2,1.4E1,6E1,1.02E2,1.8E1],"tree_param":{"num_deleted":"0","num_feature":"48","num_nodes":"7","size_leaf_vector":"0"}},{"base_weights":[6.9497025E1,5.080868E1,9.2112335E1,4.2372215E1,6.277227E1,8.646629E1,1.3705869E2,3.408358E1,4.620579E1],"categories":[],"categories_nodes":[],"categories_segments":[],"categories_sizes":[],"default_left":[true,true,true,true,false,false,false,false,false],"id":5,"left_children":[1,3,5,7,-1,-1,-1,-1,-1],"loss_changes":[7.773525E4,8.341594E3,1.02269375E4,5.540781E2,0E0,0E0,0E0,0E0,0E0],"parents":[2147483647,0,0,1,1,2,2,3,3],"right_children":[2,4,6,8,-1,-1,-1,-1,-1],"split_conditions":[6.0825354E-1,-7.772325E-1,1.4210736E0,-1.143412E0,1.8831682E1,2.593989E1,4.1117607E1,1.0225075E1,1.3861738E1],"split_indices":[0,25,0,0,0,0,0,0,0],"split_type":[0,0,0,0,0,0,0,0,0],"sum_hessian":[1.94E2,1.08E2,8.6E1,6.6E1,4.2E1,7.9E1,7E0,2.4E1,4.2E1],"tree_param":{"num_deleted":"0","num_feature":"48","num_nodes":"9","size_leaf_vector":"0"}},{"base_weights":[4.921189E1,3.7011005E1,6.7428696E1,2.9948053E1,4.5535423E1,6.2619476E1,1.01080765E2,2.0228386E1,3.1468895E1],"categories":[],"categories_nodes":[],"categories_segments":[],"categories_sizes":[],"default_left":[true,true,true,true,false,false,false,false,false],"id":6,"left_children":[1,3,5,7,-1,-1,-1,-1,-1],"loss_changes":[4.0845312E4,5.801E3,6.1320625E3,3.686172E2,0E0,0E0,0E0,0E0,0E0],"parents":[2147483647,0,0,1,1,2,2,3,3],"right_children":[2,4,6,8,-1,-1,-1,-1,-1],"split_conditions":[6.797078E-1,-3.6135805E-1,1.4210736E0,-1.505126E0,1.3660627E1,1.8785843E1,3.032423E1,6.0685163E0,9.440669E0],"split_indices":[0,38,0,1,0,0,0,0,0],"split_type":[0,0,0,0,0,0,0,0,0],"sum_hessian":[1.94E2,1.18E2,7.6E1,6.7E1,5.1E1,6.9E1,7E0,1.1E1,5.6E1],"tree_param":{"num_deleted":"0","num_feature":"48","num_nodes":"9","size_leaf_vector":"0"}},{"base_weights":[3.4849766E1,2.767955E1,5.2152985E1,1.8056772E1,3.148235E1,4.7156868E1,7.300418E1,2.5875751E1,3.3893593E1,2.625917E1,6.6114807E0,3.4133423E1,9.152344E0],"categories":[],"categories_nodes":[],"categories_segments":[],"categories_sizes":[],"default_left":[true,true,true,false,true,false,false,true,true,false,false,false,false],"id":7,"left_children":[1,3,5,-1,7,-1,-1,9,11,-1,-1,-1,-1],"loss_changes":[2.274964E4,4.554617E3,2.3911719E3,0E0,4.6135156E2,0E0,0E0,7.7521484E1,7.922656E1,0E0,0E0,0E0,0E0],"parents":[2147483647,0,0,1,1,2,2,4,4,7,7,8,8],"right_children":[2,4,6,-1,8,-1,-1,10,12,-1,-1,-1,-1],"split_conditions":[8.916146E-1,-1.0808299E0,1.2789838E0,5.417032E0,-2.5915015E-1,1.4147061E1,2.1901255E1,-5.960143E-2,1.4153764E0,7.8777514E0,1.9834443E0,1.0240027E1,2.7457032E0],"split_indices":[0,0,0,0,38,0,0,0,15,0,0,0,0],"split_type":[0,0,0,0,0,0,0,0,0,0,0,0,0],"sum_hessian":[1.94E2,1.39E2,5.5E1,4.1E1,9.8E1,4.7E1,8E0,3.3E1,6.5E1,3.2E1,1E0,6.4E1,1E0],"tree_param":{"num_deleted":"0","num_feature":"48","num_nodes":"13","size_leaf_vector":"0"}},{"base_weights":[2.4724642E1,2.000199E1,3.8771057E1,1.4976509E1,2.4320032E1,3.431288E1,5.427728E1,1.1952067E1,1.7432697E1,2.4489908E1,5.619751E0,5.473587E0,1.2388374E1,2.4727362E1,1.0390289E1],"categories":[],"categories_nodes":[],"categories_segments":[],"categories_sizes":[],"default_left":[true,true,true,true,true,false,false,true,false,true,false,false,false,false,false],"id":8,"left_children":[1,3,5,7,9,-1,-1,11,-1,13,-1,-1,-1,-1,-1],"loss_changes":[1.2160078E4,2.8474062E3,1.4558047E3,3.1907324E2,1.1016016E2,0E0,0E0,3.1123047E1,0E0,8.75E-1,0E0,0E0,0E0,0E0,0E0],"parents":[2147483647,0,0,1,1,2,2,3,3,4,4,7,7,9,9],"right_children":[2,4,6,8,10,-1,-1,12,-1,14,-1,-1,-1,-1,-1],"split_conditions":[9.2191625E-1,-4.3570453E-1,3.078501E-1,-1.1172007E0,2.4740322E0,1.0293865E1,1.6283184E1,-1.6116219E0,5.2298093E0,1.4122679E0,1.6859254E0,1.6420761E0,3.7165124E0,7.4182086E0,3.117087E0],"split_indices":[0,0,21,0,18,0,0,0,0,15,0,0,0,0,0],"split_type":[0,0,0,0,0,0,0,0,0,0,0,0,0,0,0],"sum_hessian":[1.94E2,1.47E2,4.7E1,7E1,7.7E1,3.9E1,8E0,3.4E1,3.6E1,7.6E1,1E0,3E0,3.1E1,7.4E1,2E0],"tree_param":{"num_deleted":"0","num_feature":"48","num_nodes":"15","size_leaf_vector":"0"}},{"base_weights":[1.7560516E1,1.4319215E1,2.835864E1,1.0673664E1,1.7382923E1,2.4937895E1,4.2877163E1,8.594543E0,1.2514049E1,1.7582094E1,6.3437705E0,4.928177E0,9.013407E0,9.426383E0,4.898059E0,1.4269104E0,5.4091187E0],"categories":[],"categories_nodes":[],"categories_segments":[],"categories_sizes":[],"default_left":[true,true,true,true,true,false,false,true,false,false,false,false,true,false,true,false,false],"id":9,"left_children":[1,3,5,7,9,-1,-1,11,-1,-1,-1,-1,13,-1,15,-1,-1],"loss_changes":[6.418926E3,1.5121348E3,1.115957E3,1.6794727E2,6.655664E1,0E0,0E0,1.2401367E1,0E0,0E0,0E0,0E0,8.214355E0,0E0,1.1514893E0,0E0,0E0],"parents":[2147483647,0,0,1,1,2,2,3,3,4,4,7,7,12,12,14,14],"right_children":[2,4,6,8,10,-1,-1,12,-1,-1,-1,-1,14,-1,16,-1,-1],"split_conditions":[9.4075274E-1,-8.4522784E-1,1.5940797E0,-1.1109018E0,1.9819334E0,7.4813685E0,1.286315E1,-1.5886056E0,3.7542148E0,5.2746286E0,1.9031312E0,1.4784532E0,5.831888E-1,2.827915E0,-1.2092454E0,4.2807314E-1,1.6227356E0],"split_indices":[0,13,0,0,18,0,0,0,0,0,0,0,21,0,0,0,0],"split_type":[0,0,0,0,0,0,0,0,0,0,0,0,0,0,0,0,0],"sum_hessian":[1.94E2,1.51E2,4.3E1,7.1E1,8E1,3.7E1,6E0,3.6E1,3.5E1,7.8E1,2E0,5E0,3.1E1,2.7E1,4E0,1E0,3E0],"tree_param":{"num_deleted":"0","num_feature":"48","num_nodes":"17","size_leaf_vector":"0"}},{"base_weights":[1.2485356E1,9.649649E0,1.9017122E1,8.370404E0,1.3795093E1,1.7069004E1,3.305597E1,8.539323E0,-4.8519745E0,1.5207706E1,9.307831E0,6.2051225E0,9.68447E0,1.536911E0,6.2897525E0,1.290929E1,8.794692E0,2.3260498E0,8.984179E0],"categories":[],"categories_nodes":[],"categories_segments":[],"categories_sizes":[],"default_left":[true,true,true,true,true,false,false,true,false,false,false,true,true,false,false,false,true,false,false],"id":10,"left_children":[1,3,5,7,9,-1,-1,11,-1,-1,-1,13,15,-1,-1,-1,17,-1,-1],"loss_changes":[3.4283145E3,6.1634766E2,1.0220293E3,2.8265186E2,5.495117E1,0E0,0E0,2.2591797E2,0E0,0E0,0E0,5.3459473E0,8.7322754E1,0E0,0E0,0E0,5.0194336E1,0E0,0E0],"parents":[2147483647,0,0,1,1,2,2,3,3,4,4,7,7,11,11,12,12,16,16],"right_children":[2,4,6,8,10,-1,-1,12,-1,-1,-1,14,16,-1,-1,-1,18,-1,-1],"split_conditions":[8.5332817E-1,8.168243E-1,1.6638966E0,7.733768E-1,6.270845E-1,5.1207013E0,9.916791E0,-1.1033838E0,-1.4555924E0,4.562312E0,2.7923493E0,-1.6279753E0,-1.3873553E0,4.610733E-1,1.8869258E0,3.8727872E0,-1.5479344E0,6.9781494E-1,2.6952536E0],"split_indices":[0,9,0,9,5,0,0,0,0,0,0,0,7,0,0,0,42,0,0],"split_type":[0,0,0,0,0,0,0,0,0,0,0,0,0,0,0,0,0,0,0],"sum_hessian":[1.94E2,1.37E2,5.7E1,1.07E2,3E1,5.2E1,5E0,1.06E2,1E0,2.1E1,9E0,3.7E1,6.9E1,1E0,3.6E1,1.2E1,5.7E1,2E0,5.5E1],"tree_param":{"num_deleted":"0","num_feature":"48","num_nodes":"19","size_leaf_vector":"0"}},{"base_weights":[8.896417E0,7.1956825E0,1.5109035E1,5.5305595E0,9.1909E0,1.2891829E1,2.403663E1,4.1214E0,6.1294594E0,9.283981E0,1.4306946E0,1.3055648E1,3.6609802E0,2.1345794E0,4.353908E0,6.4199166E0,3.4753036E0,1.1610848E1,8.280695E0,4.8623953E0,2.6655731E0,7.3835754E-1,6.516842E0,2.795929E0,1.1964907E1,-4.124176E0,8.611276E0,4.347229E-1,3.336736E0,2.995987E0,6.674479E0,8.99033E0,4.3331604E0],"categories":[],"categories_nodes":[],"categories_segments":[],"categories_sizes":[],"default_left":[true,true,true,true,true,true,false,true,true,true,false,false,false,false,true,true,false,true,true,false,true,false,true,false,false,false,true,false,false,false,false,false,false],"id":11,"left_children":[1,3,5,7,9,11,-1,13,15,17,-1,-1,-1,-1,19,21,-1,23,25,-1,27,-1,29,-1,-1,-1,31,-1,-1,-1,-1,-1,-1],"loss_changes":[1.9516523E3,4.6412354E2,5.0169043E2,4.8161377E1,3.6558105E1,5.130371E0,0E0,4.102844E0,2.3172852E1,6.2601074E1,0E0,0E0,0E0,0E0,8.501343E0,2.3824219E1,0E0,2.2725098E1,2.4465576E2,0E0,1.0527557E1,0E0,8.309082E0,0E0,0E0,0E0,4.2125244E1,0E0,0E0,0E0,0E0,0E0,0E0],"parents":[2147483647,0,0,1,1,2,2,3,3,4,4,5,5,7,7,8,8,9,9,14,14,15,15,17,17,18,18,20,20,22,22,26,26],"right_children":[2,4,6,8,10,12,-1,14,16,18,-1,-1,-1,-1,20,22,-1,24,26,-1,28,-1,30,-1,-1,-1,32,-1,-1,-1,-1,-1,-1],"split_conditions":[9.587697E-1,-1.528651E-1,1.5940797E0,-1.13755E0,3.4328923E0,1.2827914E0,7.2109895E0,-1.6017289E0,-6.251177E-2,-3.4422707E-2,4.292084E-1,3.9166944E0,1.0982941E0,6.403738E-1,-1.0856388E0,-1.301291E0,1.0425911E0,-1.2888871E-1,-1.189081E-2,1.4587187E0,-1.1864883E0,2.2150727E-1,-1.2144771E0,8.3877873E-1,3.589472E0,-1.2372528E0,1.2076693E0,1.3041687E-1,1.0010208E0,8.9879614E-1,2.002344E0,2.697099E0,1.2999482E0],"split_indices":[0,0,0,1,28,46,0,0,5,37,0,0,0,0,14,13,0,0,36,0,0,0,38,0,0,0,31,0,0,0,0,0,0],"split_type":[0,0,0,0,0,0,0,0,0,0,0,0,0,0,0,0,0,0,0,0,0,0,0,0,0,0,0,0,0,0,0,0,0],"sum_hessian":[1.94E2,1.54E2,4E1,8.6E1,6.8E1,3.4E1,6E0,2.8E1,5.8E1,6.7E1,1E0,3.3E1,1E0,4E0,2.4E1,5.1E1,7E0,1.7E1,5E1,1.7E1,7E0,1E0,5E1,1E0,1.6E1,1E0,4.9E1,2E0,5E0,3E0,4.7E1,4.4E1,5E0],"tree_param":{"num_deleted":"0","num_feature":"48","num_nodes":"33","size_leaf_vector":"0"}},{"base_weights":[6.3671737E0,5.702721E0,1.5230835E1,3.895791E0,7.163515E0,1.066301E1,1.8782797E1,4.0271993E0,-3.5055542E0,7.5195007E0,4.2027283E0,3.7347004E0,7.158488E0,6.808605E0,9.742826E0,5.006153E0,2.4310405E0,2.106547E0,3.9705682E0,5.2381516E0,7.6728864E0,1.4807892E0,5.2982354E0,4.0630493E0,1.49823E0,3.503746E0,6.154311E0,3.2414703E0,7.924206E0],"categories":[],"categories_nodes":[],"categories_segments":[],"categories_sizes":[],"default_left":[true,true,true,true,true,false,false,true,false,true,true,true,false,true,false,true,false,false,true,true,true,false,false,false,false,false,false,false,false],"id":12,"left_children":[1,3,5,7,9,-1,-1,11,-1,13,15,17,-1,19,-1,21,-1,-1,23,25,27,-1,-1,-1,-1,-1,-1,-1,-1],"loss_changes":[1.0615913E3,4.5513086E2,1.0640381E1,9.581592E1,7.379736E1,0E0,0E0,4.9284912E1,0E0,7.275391E1,6.3342743E0,2.1589966E1,0E0,5.482007E1,0E0,3.9198303E-1,0E0,0E0,9.231812E0,2.2928589E1,2.2203125E1,0E0,0E0,0E0,0E0,0E0,0E0,0E0,0E0],"parents":[2147483647,0,0,1,1,2,2,3,3,4,4,7,7,9,9,10,10,11,11,13,13,15,15,18,18,19,19,20,20],"right_children":[2,4,6,8,10,-1,-1,12,-1,14,16,18,-1,20,-1,22,-1,-1,24,26,28,-1,-1,-1,-1,-1,-1,-1,-1],"split_conditions":[1.096686E0,-1.5687859E-1,1.6638966E0,5.4222085E-2,1.404807E0,3.198903E0,5.634839E0,7.864721E-1,-1.0516663E0,3.3246124E-1,8.172171E-1,-1.505126E0,2.1475465E0,9.2602223E-1,2.922848E0,-4.4545764E-1,7.293122E-1,6.3196415E-1,-7.006949E-2,1.2384286E0,6.563678E-1,4.442368E-1,1.5894707E0,1.2189149E0,4.49469E-1,1.0511239E0,1.8462934E0,9.7244114E-1,2.3772619E0],"split_indices":[17,38,0,3,19,0,0,32,0,10,42,1,0,30,0,0,0,0,6,9,0,0,0,0,0,0,0,0,0],"split_type":[0,0,0,0,0,0,0,0,0,0,0,0,0,0,0,0,0,0,0,0,0,0,0,0,0,0,0,0,0],"sum_hessian":[1.94E2,1.82E2,1.2E1,8.3E1,9.9E1,7E0,5E0,8.2E1,1E0,8.7E1,1.2E1,7.7E1,5E0,6.9E1,1.8E1,7E0,5E0,1.1E1,6.6E1,2.7E1,4.2E1,1E0,6E0,6.3E1,3E0,1.1E1,1.6E1,3E0,3.9E1],"tree_param":{"num_deleted":"0","num_feature":"48","num_nodes":"29","size_leaf_vector":"0"}},{"base_weights":[4.580939E0,4.1084633E0,1.2110662E1,2.696142E0,5.1825204E0,2.3753364E0,4.0846734E0,4.692335E0,6.6209564E0,2.4962294E0,6.899211E-1,3.7675476E-1,4.3409166E0,5.0464907E0,1.2983704E0,8.100805E0,3.7390869E0,2.1093383E0,3.3677657E0,9.4638824E-1,1.1799113E-1,1.0098724E0,4.5343475E0,-6.350708E-2,5.1183453E0,-2.979721E0,2.205597E0,8.405065E0,1.9205933E0,1.3380228E0,4.1721E0,2.1883051E0,-7.6156616E-1,1.717865E0,4.0495605E0,1.5882874E-1,1.8157959E-2,5.1532173E0,2.6372864E0,5.16607E0,8.6494446E-1,1.1442261E0,2.6135743E0,8.749502E0,1.9636841E0,1.6461283E0,4.739736E0],"categories":[],"categories_nodes":[],"categories_segments":[],"categories_sizes":[],"default_left":[true,true,false,true,true,true,true,true,true,true,true,false,true,true,true,true,true,true,true,false,true,false,true,false,true,false,true,true,false,false,true,false,false,false,false,false,false,false,false,false,false,false,false,false,false,false,false],"id":13,"left_children":[1,3,-1,5,7,9,11,13,15,17,19,-1,21,23,25,27,29,31,33,-1,35,-1,37,-1,39,-1,41,43,-1,-1,45,-1,-1,-1,-1,-1,-1,-1,-1,-1,-1,-1,-1,-1,-1,-1,-1],"loss_changes":[6.4397705E2,2.6665625E2,0E0,2.682434E1,4.226245E1,1.2336884E1,1.1666351E1,9.080908E1,7.2063965E1,1.4476379E1,7.684219E-1,0E0,3.7971497E0,2.7128784E1,4.1502846E1,1.2063049E1,4.81456E0,1.2321732E1,1.3291504E1,0E0,9.346835E-3,0E0,4.978943E-1,0E0,1.0147095E1,0E0,4.736023E-1,1.3879944E1,0E0,0E0,3.6684265E0,0E0,0E0,0E0,0E0,0E0,0E0,0E0,0E0,0E0,0E0,0E0,0E0,0E0,0E0,0E0,0E0],"parents":[2147483647,0,0,1,1,3,3,4,4,5,5,6,6,7,7,8,8,9,9,10,10,12,12,13,13,14,14,15,15,16,16,17,17,18,18,20,20,22,22,24,24,26,26,27,27,30,30],"right_children":[2,4,-1,6,8,10,12,14,16,18,20,-1,22,24,26,28,30,32,34,-1,36,-1,38,-1,40,-1,42,44,-1,-1,46,-1,-1,-1,-1,-1,-1,-1,-1,-1,-1,-1,-1,-1,-1,-1,-1],"split_conditions":[1.2220664E0,-1.8537536E-1,3.633199E0,5.8371294E-1,5.220449E-1,3.9323857E-1,-3.9244854E-1,8.294829E-1,1.2749488E0,-8.6081594E-1,-3.0522814E-1,1.1302643E-1,-1.0842843E0,-6.4528143E-1,-5.1252738E-2,1.1337373E0,1.1090801E0,-8.624537E-1,-7.715857E-1,2.8391647E-1,-9.3128264E-1,3.0296174E-1,-4.284211E-1,-1.9052126E-2,1.8137308E0,-8.9391637E-1,1.9182697E-1,1.6756878E0,5.76178E-1,4.0140685E-1,6.2576973E-1,6.564916E-1,-2.2846986E-1,5.153595E-1,1.2148682E0,4.7648624E-2,5.4473877E-3,1.5459653E0,7.91186E-1,1.549821E0,2.5948334E-1,3.4326783E-1,7.8407234E-1,2.6248507E0,5.8910525E-1,4.9383852E-1,1.4219209E0],"split_indices":[0,0,0,9,10,33,14,42,19,13,4,0,0,28,26,3,22,13,7,0,0,0,27,0,9,0,22,9,0,0,8,0,0,0,0,0,0,0,0,0,0,0,0,0,0,0,0],"split_type":[0,0,0,0,0,0,0,0,0,0,0,0,0,0,0,0,0,0,0,0,0,0,0,0,0,0,0,0,0,0,0,0,0,0,0,0,0,0,0,0,0,0,0,0,0,0,0],"sum_hessian":[1.94E2,1.84E2,1E1,8.1E1,1.03E2,6.8E1,1.3E1,8E1,2.3E1,6.3E1,5E0,1E0,1.2E1,7.2E1,8E0,1.4E1,9E0,4.6E1,1.7E1,3E0,2E0,1E0,1.1E1,1E0,7.1E1,1E0,7E0,1.3E1,1E0,2E0,7E0,4.5E1,1E0,6E0,1.1E1,1E0,1E0,7E0,4E0,7E1,1E0,3E0,4E0,1.2E1,1E0,2E0,5E0],"tree_param":{"num_deleted":"0","num_feature":"48","num_nodes":"47","size_leaf_vector":"0"}},{"base_weights":[3.2938974E0,3.021147E0,1.1382014E1,1.970614E0,3.8176296E0,1.2353266E1,3.2628784E0,2.0553865E0,-2.5327606E0,3.260045E0,5.140095E0,1.7989106E0,3.422961E0,2.4736826E0,4.022698E0,5.8010097E0,2.597454E0,3.200475E0,1.5737076E0,8.5500336E-1,4.1839466E0,2.5608647E0,5.1575726E-1,7.1222153E0,3.553533E0,1.0151774E0,6.2084613E0,1.025411E0,3.6754346E0,1.2365737E0,2.1209214E0,1.3743439E0,2.2377522E-1,2.7323518E0,1.1622925E0,2.3233557E0,4.586292E0,1.5767517E0,-5.3985596E-2,6.3519716E0,1.6691284E0],"categories":[],"categories_nodes":[],"categories_segments":[],"categories_sizes":[],"default_left":[true,true,true,true,true,false,false,true,false,true,true,true,true,true,true,true,false,true,true,true,false,true,false,false,true,true,true,false,false,false,false,false,false,false,false,false,false,false,false,false,false],"id":14,"left_children":[1,3,5,7,9,-1,-1,11,-1,13,15,17,19,21,23,25,-1,27,29,31,-1,33,-1,-1,35,37,39,-1,-1,-1,-1,-1,-1,-1,-1,-1,-1,-1,-1,-1,-1],"loss_changes":[3.9579053E2,1.5145593E2,7.00708E0,3.7273895E1,6.2143433E1,0E0,0E0,2.2954681E1,0E0,3.6827454E1,3.534619E1,1.7689209E1,1.9872849E1,5.677719E0,2.9950012E1,3.854718E1,0E0,5.528778E0,9.184311E0,1.0037453E0,0E0,6.1778564E0,0E0,0E0,3.3811066E1,1.8863652E0,3.077942E0,0E0,0E0,0E0,0E0,0E0,0E0,0E0,0E0,0E0,0E0,0E0,0E0,0E0,0E0],"parents":[2147483647,0,0,1,1,2,2,3,3,4,4,7,7,9,9,10,10,11,11,12,12,13,13,14,14,15,15,17,17,18,18,19,19,21,21,24,24,25,25,26,26],"right_children":[2,4,6,8,10,-1,-1,12,-1,14,16,18,20,22,24,26,-1,28,30,32,-1,34,-1,-1,36,38,40,-1,-1,-1,-1,-1,-1,-1,-1,-1,-1,-1,-1,-1,-1],"split_conditions":[1.7288237E0,-1.5687859E-1,1.5865455E0,5.4222085E-2,7.5441825E-1,3.7059798E0,9.7886354E-1,4.5194906E-1,-7.598282E-1,9.455328E-1,1.2820141E0,-8.128207E-1,-3.9244854E-1,9.6193117E-1,-1.3738033E0,1.6946178E-2,7.7923626E-1,-1.4055259E0,-8.6081594E-1,-9.7090435E-1,1.255184E0,8.6372E-1,1.5472719E-1,2.1366646E0,-4.562019E-1,7.4850094E-1,1.6756878E0,3.0762333E-1,1.1026304E0,3.7097213E-1,6.362764E-1,4.1230318E-1,6.713257E-2,8.1970555E-1,3.4868777E-1,6.970067E-1,1.3758876E0,4.7302553E-1,-1.619568E-2,1.9055916E0,5.0073856E-1],"split_indices":[38,38,5,3,22,0,0,8,0,17,19,45,14,41,40,18,0,0,13,0,0,42,0,0,19,0,9,0,0,0,0,0,0,0,0,0,0,0,0,0,0],"split_type":[0,0,0,0,0,0,0,0,0,0,0,0,0,0,0,0,0,0,0,0,0,0,0,0,0,0,0,0,0,0,0,0,0,0,0,0,0,0,0,0,0],"sum_hessian":[1.94E2,1.89E2,5E0,8.3E1,1.06E2,4E0,1E0,8.2E1,1E0,7.7E1,2.9E1,7.1E1,1.1E1,4E1,3.7E1,2.2E1,7E0,8E0,6.3E1,3E0,8E0,3.8E1,2E0,3E0,3.4E1,2E0,2E1,2E0,6E0,4.1E1,2.2E1,1E0,2E0,3.3E1,5E0,1.7E1,1.7E1,1E0,1E0,1.9E1,1E0],"tree_param":{"num_deleted":"0","num_feature":"48","num_nodes":"41","size_leaf_vector":"0"}},{"base_weights":[2.394198E0,2.1809437E0,8.74821E0,1.4453939E0,2.8013654E0,1.2090229E0,2.4482727E0,2.3807778E0,3.8814867E0,1.2484016E0,-8.3280945E-1,2.7060483E0,4.2922974E-1,-1.0926971E0,2.538492E0,4.9030476E0,2.1959484E0,8.285117E-1,1.5385939E0,3.3863559E0,1.2345785E0,5.2056885E-1,1.2327576E-1,-2.1528473E0,-2.1697998E-2,3.5159035E0,2.225094E0,5.151939E0,5.8483887E-1,9.989726E-1,2.9082205E0,2.0551147E0,5.798858E-1,1.7410095E0,4.60701E-1,1.4887512E0,-1.81427E-2,-1.8875122E-1,1.5620422E-1,5.7162423E0,1.996091E0,7.473053E-1,2.4812734E0,9.4454956E-1,5.384999E0],"categories":[],"categories_nodes":[],"categories_segments":[],"categories_sizes":[],"default_left":[true,true,false,true,true,true,true,true,true,true,false,true,true,true,true,true,true,true,true,false,true,false,false,false,true,true,true,true,false,false,false,false,false,false,false,false,false,false,false,false,false,false,false,false,false],"id":15,"left_children":[1,3,-1,5,7,9,11,13,15,17,-1,19,21,23,25,27,29,31,33,-1,35,-1,-1,-1,37,39,41,43,-1,-1,-1,-1,-1,-1,-1,-1,-1,-1,-1,-1,-1,-1,-1,-1,-1],"loss_changes":[2.4514929E2,8.265759E1,0E0,1.8137558E1,3.709613E1,6.989624E0,7.16584E0,4.4407776E1,3.5723938E1,7.620224E0,0E0,9.834007E0,1.9663155E-2,4.494967E0,1.4538055E1,1.4183197E1,7.325634E0,8.567162E0,8.361572E0,0E0,1.9374552E0,0E0,0E0,0E0,1.1864115E-1,4.2095505E1,2.0103333E1,9.622223E0,0E0,0E0,0E0,0E0,0E0,0E0,0E0,0E0,0E0,0E0,0E0,0E0,0E0,0E0,0E0,0E0,0E0],"parents":[2147483647,0,0,1,1,3,3,4,4,5,5,6,6,7,7,8,8,9,9,11,11,12,12,13,13,14,14,15,15,16,16,17,17,18,18,20,20,24,24,25,25,26,26,27,27],"right_children":[2,4,-1,6,8,10,12,14,16,18,-1,20,22,24,26,28,30,32,34,-1,36,-1,-1,-1,38,40,42,44,-1,-1,-1,-1,-1,-1,-1,-1,-1,-1,-1,-1,-1,-1,-1,-1,-1],"split_conditions":[1.7288237E0,-1.3803232E-1,2.624463E0,2.1575648E-1,3.7005743E-1,1.3166099E0,-4.2862406E-1,-2.2585478E-2,1.0815489E0,-1.102262E0,-2.4984284E-1,1.2148533E0,-3.0363154E-1,-1.5306173E-2,-1.1937511E0,1.631856E0,6.5554875E-1,-1.3553135E0,-6.0337905E-2,1.0159068E0,1.5496583E0,1.5617067E-1,3.698273E-2,-6.4585423E-1,8.8929676E-2,1.3038073E0,-7.170424E-1,-5.998949E-1,1.7545167E-1,2.996918E-1,8.724662E-1,6.165345E-1,1.7396574E-1,5.2230287E-1,1.382103E-1,4.4662538E-1,-5.4428102E-3,-5.662537E-2,4.686127E-2,1.7148727E0,5.988273E-1,2.2419159E-1,7.44382E-1,2.833649E-1,1.6154997E0],"split_indices":[38,0,0,4,43,18,27,23,16,2,0,16,0,0,34,7,0,37,5,0,7,0,0,0,0,14,45,4,0,0,0,0,0,0,0,0,0,0,0,0,0,0,0,0,0],"split_type":[0,0,0,0,0,0,0,0,0,0,0,0,0,0,0,0,0,0,0,0,0,0,0,0,0,0,0,0,0,0,0,0,0,0,0,0,0,0,0,0,0,0,0,0,0],"sum_hessian":[1.94E2,1.89E2,5E0,8.8E1,1.01E2,7.3E1,1.5E1,7.5E1,2.6E1,7.2E1,1E0,1.3E1,2E0,3E0,7.2E1,1.5E1,1.1E1,3.1E1,4.1E1,8E0,5E0,1E0,1E0,1E0,2E0,1.5E1,5.7E1,1.4E1,1E0,5E0,6E0,4E0,2.7E1,3.4E1,7E0,4E0,1E0,1E0,1E0,5E0,1E1,9E0,4.8E1,1E0,1.3E1],"tree_param":{"num_deleted":"0","num_feature":"48","num_nodes":"45","size_leaf_vector":"0"}},{"base_weights":[1.7341385E0,1.5750701E0,7.463721E0,9.977151E-1,1.9911432E0,7.813292E-1,1.6294448E0,1.6908206E0,2.8102734E0,8.750763E-1,-2.5511423E-1,7.8378296E-1,2.0245104E0,-7.0112306E-1,1.8208066E0,4.7222166E0,2.294857E0,6.5637916E-1,1.3246045E0,-1.2657877E0,5.6666946E-1,-9.86735E-4,1.0455374E0,2.2703552E0,4.482422E-1,3.855896E-2,-1.8299255E0,2.3299885E0,1.4048721E0,1.4740031E0,3.2966523E0,2.0871887E0,5.684292E-1,2.2169604E0,6.936798E-1,9.9710846E-1,9.082031E-2,1.3946533E-2,-1.5426636E-2,1.1297729E0,3.1217957E-1,1.5836589E-1,-1.6043091E-1,9.314855E-1,2.9583383E0,1.5649691E0,-6.673889E-1,1.7592604E0,8.9667183E-1,8.0285645E-1,3.4845343E0],"categories":[],"categories_nodes":[],"categories_segments":[],"categories_sizes":[],"default_left":[true,true,false,true,true,true,true,true,true,true,true,true,true,true,true,false,true,true,true,false,true,true,true,false,false,true,false,true,true,true,true,false,false,false,false,false,false,false,false,false,false,false,false,false,false,false,false,false,false,false,false],"id":16,"left_children":[1,3,-1,5,7,9,11,13,15,17,19,21,23,25,27,-1,29,31,33,-1,35,37,39,-1,-1,41,-1,43,45,47,49,-1,-1,-1,-1,-1,-1,-1,-1,-1,-1,-1,-1,-1,-1,-1,-1,-1,-1,-1,-1],"loss_changes":[1.6596613E2,4.3895813E1,0E0,9.936058E0,2.2308685E1,6.3445473E0,5.0950546E0,2.7082901E1,1.6755707E1,4.832569E0,5.7006135E0,1.6443667E0,4.0200615E0,4.2453346E0,1.3457764E1,0E0,1.4876587E1,3.9730072E0,8.596306E0,0E0,7.287384E-1,8.6205284E-4,1.7956734E-2,0E0,0E0,1.2076825E-1,0E0,2.7121826E1,1.6305534E1,8.928375E-1,1.8878098E0,0E0,0E0,0E0,0E0,0E0,0E0,0E0,0E0,0E0,0E0,0E0,0E0,0E0,0E0,0E0,0E0,0E0,0E0,0E0,0E0],"parents":[2147483647,0,0,1,1,3,3,4,4,5,5,6,6,7,7,8,8,9,9,10,10,11,11,12,12,13,13,14,14,16,16,17,17,18,18,20,20,21,21,22,22,25,25,27,27,28,28,29,29,30,30],"right_children":[2,4,-1,6,8,10,12,14,16,18,20,22,24,26,28,-1,30,32,34,-1,36,38,40,-1,-1,42,-1,44,46,48,50,-1,-1,-1,-1,-1,-1,-1,-1,-1,-1,-1,-1,-1,-1,-1,-1,-1,-1,-1,-1],"split_conditions":[1.7064826E0,-1.8537536E-1,2.2391164E0,-2.3897603E-2,3.7005743E-1,1.0959634E0,-1.0612756E0,-3.290454E-2,-9.987385E-2,1.7182402E-1,-1.2109212E0,4.9343354E-1,-4.2050737E-1,5.4222085E-2,-5.7590795E-1,1.4166651E0,7.474772E-1,-1.2060728E0,-9.9120295E-1,-3.7973633E-1,-1.0468973E0,-1.2410405E0,-1.1159816E0,6.8110657E-1,1.3447267E-1,1.8374122E0,-5.489777E-1,-1.2642848E0,1.1687834E0,8.172171E-1,-5.998949E-1,6.261566E-1,1.7052875E-1,6.650882E-1,2.0810395E-1,2.9913256E-1,2.7246095E-2,4.18396E-3,-4.627991E-3,3.389319E-1,9.365387E-2,4.750977E-2,-4.8129275E-2,2.7944565E-1,8.8750154E-1,4.6949074E-1,-2.0021668E-1,5.2777815E-1,2.6900157E-1,2.4085695E-1,1.0453603E0],"split_indices":[0,0,0,4,43,16,41,23,35,39,1,46,27,3,44,0,0,9,1,0,0,0,0,0,0,4,0,42,12,42,4,0,0,0,0,0,0,0,0,0,0,0,0,0,0,0,0,0,0,0,0],"split_type":[0,0,0,0,0,0,0,0,0,0,0,0,0,0,0,0,0,0,0,0,0,0,0,0,0,0,0,0,0,0,0,0,0,0,0,0,0,0,0,0,0,0,0,0,0,0,0,0,0,0,0],"sum_hessian":[1.94E2,1.9E2,4E0,8.1E1,1.09E2,6.2E1,1.9E1,8.2E1,2.7E1,5.7E1,5E0,7E0,1.2E1,4E0,7.8E1,4E0,2.3E1,4E1,1.7E1,2E0,3E0,2E0,5E0,1E1,2E0,3E0,1E0,3.3E1,4.5E1,1.4E1,9E0,1E0,3.9E1,6E0,1.1E1,1E0,2E0,1E0,1E0,4E0,1E0,2E0,1E0,1.1E1,2.2E1,4.2E1,3E0,8E0,6E0,1E0,8E0],"tree_param":{"num_deleted":"0","num_feature":"48","num_nodes":"51","size_leaf_vector":"0"}},{"base_weights":[1.2625619E0,1.1488457E0,6.405304E0,8.749575E-1,1.7665364E0,6.2994397E-1,1.6131828E0,3.168103E0,1.4444505E0,6.8634325E-1,-6.1275023E-1,3.9828491E0,1.331822E0,3.3684626E0,6.824341E-1,3.973028E-1,1.7027627E0,4.8098162E-1,1.1899039E0,2.686615E-1,-9.0026855E-1,1.4734626E0,6.3570297E-1,3.586708E0,8.112488E-1,-6.487045E-1,8.706436E-1,7.6945597E-1,2.1946363E0,5.5844116E-1,-6.686646E-1,1.966535E0,5.7169926E-1,1.5971687E0,4.2471313E-1,1.6264343E-1,6.8743896E-1,3.665161E-1,-1.1092834E0,1.2883707E0,-2.5502524E-1,7.772064E-2,1.3650093E0,3.0679765E0,1.4078776E0],"categories":[],"categories_nodes":[],"categories_segments":[],"categories_sizes":[],"default_left":[true,true,false,true,true,true,true,true,true,true,true,false,true,true,false,true,true,true,true,false,false,true,true,false,false,true,true,true,true,false,false,false,false,false,false,false,false,false,false,false,false,false,false,false,false],"id":17,"left_children":[1,3,-1,5,7,9,11,13,15,17,19,-1,21,23,-1,25,27,29,31,-1,-1,33,35,-1,-1,37,39,41,43,-1,-1,-1,-1,-1,-1,-1,-1,-1,-1,-1,-1,-1,-1,-1,-1],"loss_changes":[1.0667996E2,3.0936539E1,0E0,2.3401932E1,2.160646E1,7.6395226E0,1.669767E1,2.6815186E0,1.2577545E1,9.66547E0,1.5089774E0,0E0,2.119873E0,2.1131897E0,0E0,6.011088E0,1.6215012E1,6.7850857E0,1.2319008E1,0E0,0E0,2.5650787E0,5.951214E-2,0E0,0E0,2.2769272E0,4.0903463E0,6.073389E0,1.2858368E1,0E0,0E0,0E0,0E0,0E0,0E0,0E0,0E0,0E0,0E0,0E0,0E0,0E0,0E0,0E0,0E0],"parents":[2147483647,0,0,1,1,3,3,4,4,5,5,6,6,7,7,8,8,9,9,10,10,12,12,13,13,15,15,16,16,17,17,18,18,21,21,22,22,25,25,26,26,27,27,28,28],"right_children":[2,4,-1,6,8,10,12,14,16,18,20,-1,22,24,-1,26,28,30,32,-1,-1,34,36,-1,-1,38,40,42,44,-1,-1,-1,-1,-1,-1,-1,-1,-1,-1,-1,-1,-1,-1,-1,-1],"split_conditions":[1.7412884E0,9.2602223E-1,1.9215913E0,6.5009296E-1,1.0261204E0,5.288986E-1,5.193658E-2,1.1296552E0,-5.426916E-1,6.4955896E-1,7.337762E-1,1.1948547E0,2.3891754E0,1.1639197E0,2.0473023E-1,-3.5895628E-1,-7.995147E-1,2.4091816E-1,9.7508654E-2,8.059845E-2,-2.7008057E-1,-3.4422707E-2,-4.65167E-1,1.0760125E0,2.4337465E-1,7.661087E-1,1.1281431E0,1.3470473E0,-2.9691005E-1,1.6753235E-1,-2.0059939E-1,5.899605E-1,1.7150979E-1,4.7915062E-1,1.2741394E-1,4.8793033E-2,2.062317E-1,1.0995484E-1,-3.3278504E-1,3.8651124E-1,-7.6507576E-2,2.3316193E-2,4.095028E-1,9.20393E-1,4.2236328E-1],"split_indices":[0,30,0,45,37,45,44,3,4,15,15,0,45,0,0,21,31,28,34,0,0,37,0,0,0,0,6,38,43,0,0,0,0,0,0,0,0,0,0,0,0,0,0,0,0],"split_type":[0,0,0,0,0,0,0,0,0,0,0,0,0,0,0,0,0,0,0,0,0,0,0,0,0,0,0,0,0,0,0,0,0,0,0,0,0,0,0,0,0,0,0,0,0],"sum_hessian":[1.94E2,1.91E2,3E0,1.34E2,5.7E1,1.02E2,3.2E1,9E0,4.8E1,9.8E1,4E0,2E0,3E1,8E0,1E0,1E1,3.8E1,7.1E1,2.7E1,1E0,3E0,2.4E1,6E0,7E0,1E0,3E0,7E0,1.4E1,2.4E1,6.7E1,4E0,1.1E1,1.6E1,2.1E1,3E0,1E0,5E0,1E0,2E0,5E0,2E0,7E0,7E0,1E1,1.4E1],"tree_param":{"num_deleted":"0","num_feature":"48","num_nodes":"45","size_leaf_vector":"0"}},{"base_weights":[9.243227E-1,8.35346E-1,4.9641266E0,6.3169044E-1,1.2949692E0,4.26032E-1,1.164893E0,2.6551077E0,1.0869704E0,4.9300906E-1,-9.3173826E-1,8.6771184E-1,2.8933105E0,3.0239766E0,2.2094727E-1,5.625777E-2,1.3310387E0,5.365944E-1,-6.327057E-1,-1.5685526E0,1.5655518E-2,3.3822632E-1,9.9725693E-1,3.219925E0,7.934265E-1,7.523804E-1,3.3278198E0,5.8029175E-1,-1.0058746E0,5.2442086E-1,1.505407E0,2.780356E-1,7.054787E-1,-7.616984E-1,-1.2286377E-1,-1.2168884E-1,1.4517212E-1,7.272377E-1,-4.0628053E-2,1.482544E0,6.0129356E-1,1.2560272E-1,8.2798463E-1,9.3803185E-1,-6.154785E-1,1.6583587E0,-5.632019E-2],"categories":[],"categories_nodes":[],"categories_segments":[],"categories_sizes":[],"default_left":[true,true,false,true,true,true,true,true,true,true,true,true,true,true,false,true,true,true,true,false,true,true,true,false,false,false,false,true,false,true,true,false,false,false,false,false,false,false,false,false,false,false,false,false,false,false,false],"id":18,"left_children":[1,3,-1,5,7,9,11,13,15,17,19,21,23,25,-1,27,29,31,33,-1,35,37,39,-1,-1,-1,-1,41,-1,43,45,-1,-1,-1,-1,-1,-1,-1,-1,-1,-1,-1,-1,-1,-1,-1,-1],"loss_changes":[6.5945724E1,1.7154099E1,0E0,1.4307499E1,1.3522598E1,9.46236E0,1.6494606E1,5.6170654E0,1.3006458E1,5.0006485E0,3.0411263E0,1.9262466E0,8.7448883E-1,1.6374702E0,0E0,6.706229E0,5.117775E0,3.8211727E0,1.6947854E-1,0E0,7.103095E-2,1.2085755E0,4.1046066E0,0E0,0E0,0E0,0E0,7.969885E-1,0E0,4.820613E0,8.214943E0,0E0,0E0,0E0,0E0,0E0,0E0,0E0,0E0,0E0,0E0,0E0,0E0,0E0,0E0,0E0,0E0],"parents":[2147483647,0,0,1,1,3,3,4,4,5,5,6,6,7,7,8,8,9,9,10,10,11,11,12,12,13,13,15,15,16,16,17,17,18,18,20,20,21,21,22,22,27,27,29,29,30,30],"right_children":[2,4,-1,6,8,10,12,14,16,18,20,22,24,26,-1,28,30,32,34,-1,36,38,40,-1,-1,-1,-1,42,-1,44,46,-1,-1,-1,-1,-1,-1,-1,-1,-1,-1,-1,-1,-1,-1,-1,-1],"split_conditions":[1.7412884E0,9.2602223E-1,1.489238E0,-2.3897603E-2,9.5347047E-1,1.0805244E0,1.174851E0,7.702124E-1,9.279345E-1,9.5221466E-1,6.5799284E-1,-1.0612756E0,8.3920085E-1,7.4563444E-1,6.628418E-2,-6.5140045E-1,-5.370985E-1,-1.0195978E0,8.269166E-1,-4.705658E-1,7.242888E-2,4.9308777E-1,-4.3227667E-1,9.659775E-1,2.3802796E-1,2.2571412E-1,9.98346E-1,6.563678E-1,-3.017624E-1,1.2943323E0,1.3431144E0,8.341069E-2,2.1164362E-1,-2.2850953E-1,-3.6859132E-2,-3.6506653E-2,4.355164E-2,2.1817131E-1,-1.2188417E-2,4.447632E-1,1.8038808E-1,3.768082E-2,2.483954E-1,2.8140956E-1,-1.8464357E-1,4.9750763E-1,-1.6896058E-2],"split_indices":[0,30,0,4,30,18,33,8,25,17,10,41,0,0,0,9,4,17,0,0,0,42,27,0,0,0,0,0,0,23,13,0,0,0,0,0,0,0,0,0,0,0,0,0,0,0,0],"split_type":[0,0,0,0,0,0,0,0,0,0,0,0,0,0,0,0,0,0,0,0,0,0,0,0,0,0,0,0,0,0,0,0,0,0,0,0,0,0,0,0,0,0,0,0,0,0,0],"sum_hessian":[1.94E2,1.91E2,3E0,1.34E2,5.7E1,9.8E1,3.6E1,6E0,5.1E1,9.4E1,4E0,3.2E1,4E0,5E0,1E0,1E1,4.1E1,9.1E1,3E0,2E0,2E0,7E0,2.5E1,3E0,1E0,1E0,4E0,7E0,3E0,8E0,3.3E1,3.7E1,5.4E1,2E0,1E0,1E0,1E0,3E0,4E0,1E1,1.5E1,3E0,4E0,6E0,2E0,3E1,3E0],"tree_param":{"num_deleted":"0","num_feature":"48","num_nodes":"47","size_leaf_vector":"0"}},{"base_weights":[6.72375E-1,6.027312E-1,3.8471832E0,4.681747E-1,9.966472E-1,2.0522156E0,4.2025682E-1,6.5449154E-1,1.6400528E0,2.6430562E0,1.398468E-1,3.1867167E-1,9.9040586E-1,3.98667E-1,1.2030213E0,2.041757E0,8.318961E-1,3.6672673E-1,-6.7151386E-1,2.1840088E0,5.81087E-1,4.9729773E-1,-2.1881104E-1,1.2805854E0,2.5247192E-1,2.2897136E0,-9.492493E-2,1.3301697E0,3.6655274E-1,5.0244427E-1,1.6116524E-1,-1.2548422E0,-6.613922E-2,-2.931671E-1,1.2223816E0,7.5408244E-1,1.9530417E-1,-2.9090372E-1,-1.2664795E-3,6.075516E-1,1.5158437E0,9.2371625E-1,2.548039E0,-8.575439E-3,4.6247864E-1],"categories":[],"categories_nodes":[],"categories_segments":[],"categories_sizes":[],"default_left":[true,true,false,true,true,true,true,true,true,false,false,true,true,true,true,true,true,true,true,false,true,true,true,true,false,true,false,false,true,false,false,false,false,false,false,false,false,false,false,false,false,false,false,false,false],"id":19,"left_children":[1,3,-1,5,7,9,11,13,15,-1,-1,17,19,21,23,25,27,29,31,-1,33,35,37,39,-1,41,-1,-1,43,-1,-1,-1,-1,-1,-1,-1,-1,-1,-1,-1,-1,-1,-1,-1,-1],"loss_changes":[4.0796783E1,9.710152E0,0E0,1.0143602E1,9.493553E0,4.1499977E0,7.9088345E0,4.1511974E0,3.4957123E0,0E0,0E0,6.0514383E0,8.990749E0,1.5704699E0,4.139738E-1,5.5153885E0,1.1355004E0,3.1831236E0,2.0357988E0,0E0,9.889486E0,1.4812179E0,6.236507E-2,5.040779E-1,0E0,8.221817E-1,0E0,0E0,1.838885E-1,0E0,0E0,0E0,0E0,0E0,0E0,0E0,0E0,0E0,0E0,0E0,0E0,0E0,0E0,0E0,0E0],"parents":[2147483647,0,0,1,1,3,3,4,4,5,5,6,6,7,7,8,8,11,11,12,12,13,13,14,14,15,15,16,16,17,17,18,18,20,20,21,21,22,22,23,23,25,25,28,28],"right_children":[2,4,-1,6,8,10,12,14,16,-1,-1,18,20,22,24,26,28,30,32,-1,34,36,38,40,-1,42,-1,-1,44,-1,-1,-1,-1,-1,-1,-1,-1,-1,-1,-1,-1,-1,-1,-1,-1],"split_conditions":[1.7412884E0,-1.8445605E-2,1.154155E0,-2.4010582E0,6.2537E-1,8.6090374E-1,1.0414145E0,6.5104437E-1,4.283802E-1,7.929169E-1,4.195404E-2,9.887357E-1,-4.5873934E-1,-1.0922851E-2,1.6782472E0,1.1730967E0,3.4857664E-1,-1.0556851E-2,4.3077567E-1,6.552027E-1,4.6416295E-1,1.0883152E0,8.6138916E-1,-6.7453885E-1,7.574158E-2,7.0161307E-1,-2.8477479E-2,3.9905092E-1,6.535604E-1,1.5073329E-1,4.8349574E-2,-3.7645265E-1,-1.9841768E-2,-8.795014E-2,3.6671448E-1,2.2622474E-1,5.8591254E-2,-8.727112E-2,-3.7994387E-4,1.8226548E-1,4.5475313E-1,2.771149E-1,7.6441175E-1,-2.572632E-3,1.387436E-1],"split_indices":[0,4,0,20,9,0,24,0,38,0,0,18,10,47,2,22,18,12,20,0,15,40,7,9,0,22,0,0,8,0,0,0,0,0,0,0,0,0,0,0,0,0,0,0,0],"split_type":[0,0,0,0,0,0,0,0,0,0,0,0,0,0,0,0,0,0,0,0,0,0,0,0,0,0,0,0,0,0,0,0,0,0,0,0,0,0,0,0,0,0,0,0,0],"sum_hessian":[1.94E2,1.91E2,3E0,1.44E2,4.7E1,3E0,1.41E2,3.2E1,1.5E1,2E0,1E0,1.21E2,2E1,2.3E1,9E0,9E0,6E0,1.16E2,5E0,4E0,1.6E1,2E1,3E0,8E0,1E0,8E0,1E0,2E0,4E0,6.9E1,4.7E1,2E0,3E0,7E0,9E0,1E1,1E1,2E0,1E0,3E0,5E0,2E0,6E0,1E0,3E0],"tree_param":{"num_deleted":"0","num_feature":"48","num_nodes":"45","size_leaf_vector":"0"}},{"base_weights":[4.9725217E-1,4.153188E-1,2.1443956E0,1.6548237E-1,5.811424E-1,2.6114066E0,3.399048E-1,3.6501172E-1,-1.055714E-1,7.376099E-2,7.260939E-1,7.9776E-1,3.1773133E0,1.5361889E-1,1.2970772E0,2.432142E-2,-6.9414264E-1,5.6829834E-1,-2.708435E-1,1.5894942E0,5.9332114E-1,3.5251083E0,8.930664E-1,-2.4820182E-1,3.564209E-1,1.620519E0,2.1783447E-1,-1.9212171E-1,3.7629005E-1,-3.5512287E-2,-1.0145798E0,-2.0670573E-1,7.6348877E-1,-7.991699E-1,-2.8137207E-2,-3.8639832E-1,1.8257233E0,2.3018584E-1,9.065574E-1,3.5871124E-1,-4.6614686E-1,1.0255432E-1,5.4856217E-1,3.7597656E-1,-4.9224854E-2,-6.1600494E-1,-6.627808E-2,4.1389465E-2,9.5201874E-1,-1.7892456E-1,1.2565613E-1,-3.5546875E-1,4.5410156E-2,1.3149261E-1,8.260517E-1,-3.161621E-2,-9.831543E-1,3.065033E-1,-3.1095234E-1,5.14211E-1,2.089325E0,-3.119289E-1,3.451735E-1,1.0536942E0,4.0948486E-1],"categories":[],"categories_nodes":[],"categories_segments":[],"categories_sizes":[],"default_left":[true,true,true,true,true,true,false,true,true,true,true,false,true,true,true,true,true,true,true,true,true,false,false,true,true,false,true,true,true,true,false,true,true,true,true,false,true,true,true,false,false,false,false,false,false,false,false,false,false,false,false,false,false,false,false,false,false,false,false,false,false,false,false,false,false],"id":20,"left_children":[1,3,5,7,9,11,-1,13,15,17,19,-1,21,23,25,27,29,31,33,35,37,-1,-1,39,41,-1,43,45,47,49,-1,51,53,55,57,-1,59,61,63,-1,-1,-1,-1,-1,-1,-1,-1,-1,-1,-1,-1,-1,-1,-1,-1,-1,-1,-1,-1,-1,-1,-1,-1,-1,-1],"loss_changes":[2.542582E1,7.6510124E0,6.696823E0,4.148857E0,8.183556E0,4.6497498E0,0E0,8.470151E0,2.5397716E0,4.5848346E0,9.030251E0,0E0,8.2409286E-1,3.103596E0,2.4395733E0,2.205367E0,1.2302675E0,1.8218248E0,2.0291638E0,5.8398514E0,8.549856E0,0E0,0E0,1.8867702E0,1.1631992E0,0E0,1.4520736E-1,9.193465E-1,2.0815272E0,9.1823556E-2,0E0,1.2865846E-1,2.4723625E-1,6.750059E-1,1.2310046E0,0E0,2.3828163E0,2.4141197E0,2.5671692E0,0E0,0E0,0E0,0E0,0E0,0E0,0E0,0E0,0E0,0E0,0E0,0E0,0E0,0E0,0E0,0E0,0E0,0E0,0E0,0E0,0E0,0E0,0E0,0E0,0E0,0E0],"parents":[2147483647,0,0,1,1,2,2,3,3,4,4,5,5,7,7,8,8,9,9,10,10,12,12,13,13,14,14,15,15,16,16,17,17,18,18,19,19,20,20,23,23,24,24,26,26,27,27,28,28,29,29,31,31,32,32,33,33,34,34,36,36,37,37,38,38],"right_children":[2,4,6,8,10,12,-1,14,16,18,20,-1,22,24,26,28,30,32,34,36,38,-1,-1,40,42,-1,44,46,48,50,-1,52,54,56,58,-1,60,62,64,-1,-1,-1,-1,-1,-1,-1,-1,-1,-1,-1,-1,-1,-1,-1,-1,-1,-1,-1,-1,-1,-1,-1,-1,-1,-1],"split_conditions":[1.1647758E0,-4.1713578E-1,1.1467326E0,-4.8907748E-1,-9.8464584E-1,7.593521E-1,1.0197144E-1,-5.675868E-1,-2.297802E-1,-1.3660843E0,-5.050401E-1,2.3932801E-1,1.0880914E0,-4.94745E-1,1.128014E0,-3.515189E-1,-1.0582759E0,4.9601135E-1,3.885007E-1,-2.2740788E0,5.734694E-1,1.0575325E0,2.6791993E-1,-1.6171529E0,-1.2285817E0,4.8615572E-1,1.1057732E0,-1.3992352E0,-4.8371524E-1,-1.3680339E0,-3.0437395E-1,-1.4632683E0,-1.5098422E0,-1.3625021E0,5.459265E-1,-1.159195E-1,-5.9345734E-1,-6.446679E-1,1.2820141E0,1.0761338E-1,-1.3984406E-1,3.0766297E-2,1.6456866E-1,1.12792976E-1,-1.4767457E-2,-1.8480149E-1,-1.9883424E-2,1.24168405E-2,2.8560564E-1,-5.367737E-2,3.769684E-2,-1.0664063E-1,1.3623048E-2,3.9447784E-2,2.4781552E-1,-9.484864E-3,-2.949463E-1,9.195099E-2,-9.32857E-2,1.542633E-1,6.267975E-1,-9.3578674E-2,1.0355206E-1,3.161083E-1,1.2284546E-1],"split_indices":[35,19,13,8,38,0,0,7,4,23,28,0,15,28,6,4,0,18,18,9,22,0,0,39,7,0,0,15,43,0,0,0,1,0,42,0,4,33,19,0,0,0,0,0,0,0,0,0,0,0,0,0,0,0,0,0,0,0,0,0,0,0,0,0,0],"split_type":[0,0,0,0,0,0,0,0,0,0,0,0,0,0,0,0,0,0,0,0,0,0,0,0,0,0,0,0,0,0,0,0,0,0,0,0,0,0,0,0,0,0,0,0,0,0,0,0,0,0,0,0,0,0,0,0,0,0,0,0,0,0,0,0,0],"sum_hessian":[1.94E2,1.86E2,8E0,7.5E1,1.11E2,6E0,2E0,4.3E1,3.2E1,2.5E1,8.6E1,2E0,4E0,3.6E1,7E0,2.7E1,5E0,1E1,1.5E1,1E1,7.6E1,3E0,1E0,1.2E1,2.4E1,5E0,2E0,1.7E1,1E1,2E0,3E0,2E0,8E0,4E0,1.1E1,1E0,9E0,3.6E1,4E1,3E0,9E0,1.1E1,1.3E1,1E0,1E0,3E0,1.4E1,7E0,3E0,1E0,1E0,1E0,1E0,1E0,7E0,1E0,3E0,5E0,6E0,2E0,7E0,6E0,3E1,3E1,1E1],"tree_param":{"num_deleted":"0","num_feature":"48","num_nodes":"65","size_leaf_vector":"0"}},{"base_weights":[3.6443543E-1,3.138992E-1,2.2220337E0,1.9628723E-1,5.7370406E-1,1.1756592E0,3.2037659E0,2.988389E-1,-9.939575E-2,1.2554474E0,4.5778772E-1,1.7186719E-1,1.0574625E0,6.573868E-1,-1.9088745E-1,1.3852016E0,1.7358398E-1,-1.263214E-1,5.829809E-1,1.2660828E0,1.4409898E-1,1.6526133E0,5.431993E-1,-3.4916505E-1,3.2759094E-1,1.5793641E0,5.998637E-1,2.4292429E-1,-7.40921E-1,4.8566157E-1,1.1021729E0,4.3754807E-1,5.2991692E-2,7.674561E-2,9.010132E-1,3.5896301E-3,-4.8654684E-1,8.670044E-2,5.4680634E-1,4.2044067E-1,4.676819E-3,2.2508409E-2,6.0841876E-1,1.9165039E-1,1.2459472E0],"categories":[],"categories_nodes":[],"categories_segments":[],"categories_sizes":[],"default_left":[true,true,true,true,true,false,false,true,true,true,true,true,true,false,true,true,false,true,true,false,true,false,true,true,true,false,false,true,false,true,true,false,false,false,false,false,false,false,false,false,false,false,false,false,false],"id":21,"left_children":[1,3,5,7,9,-1,-1,11,13,15,17,19,21,-1,23,25,-1,27,29,-1,31,-1,33,35,37,-1,-1,39,-1,41,43,-1,-1,-1,-1,-1,-1,-1,-1,-1,-1,-1,-1,-1,-1],"loss_changes":[1.760834E1,5.7236156E0,1.3697605E0,4.062634E0,4.087759E0,0E0,0E0,9.354308E0,2.5488632E0,8.825617E-1,3.8762178E0,2.4306183E0,3.3872004E0,0E0,2.7404156E0,1.19978905E-1,0E0,2.4493704E0,1.6373949E0,0E0,2.2493186E0,0E0,1.4329839E0,1.2132981E0,3.7504685E-1,0E0,0E0,2.9408348E-1,0E0,2.1468105E0,5.4667234E-1,0E0,0E0,0E0,0E0,0E0,0E0,0E0,0E0,0E0,0E0,0E0,0E0,0E0,0E0],"parents":[2147483647,0,0,1,1,2,2,3,3,4,4,7,7,8,8,9,9,10,10,11,11,12,12,14,14,15,15,17,17,18,18,20,20,22,22,23,23,24,24,27,27,29,29,30,30],"right_children":[2,4,6,8,10,-1,-1,12,14,16,18,20,22,-1,24,26,-1,28,30,-1,32,-1,34,36,38,-1,-1,40,-1,42,44,-1,-1,-1,-1,-1,-1,-1,-1,-1,-1,-1,-1,-1,-1],"split_conditions":[2.2341666E0,9.2602223E-1,1.7914499E0,6.1594367E-2,9.562819E-1,3.5269776E-1,9.611298E-1,1.174851E0,-1.6830458E-1,7.702124E-1,9.279345E-1,-1.2060728E0,-7.087732E-2,1.9721605E-1,8.660221E-1,9.488037E-1,5.2075196E-2,-6.5140045E-1,9.222133E-1,3.7982485E-1,-4.41714E-1,4.95784E-1,1.4303315E0,-4.8119965E-1,5.6739587E-1,4.7380924E-1,1.7995912E-1,6.38856E-1,-2.2227632E-1,1.0322894E0,1.1008769E0,1.3126443E-1,1.5897509E-2,2.3023684E-2,2.7030396E-1,1.0768891E-3,-1.4596406E-1,2.6010133E-2,1.640419E-1,1.261322E-1,1.4030457E-3,6.752523E-3,1.8252563E-1,5.749512E-2,3.7378418E-1],"split_indices":[10,30,0,13,30,0,0,33,11,8,25,9,27,0,0,30,0,9,15,0,45,0,33,28,31,0,0,1,0,35,3,0,0,0,0,0,0,0,0,0,0,0,0,0,0],"split_type":[0,0,0,0,0,0,0,0,0,0,0,0,0,0,0,0,0,0,0,0,0,0,0,0,0,0,0,0,0,0,0,0,0,0,0,0,0,0,0,0,0,0,0,0,0],"sum_hessian":[1.94E2,1.9E2,4E0,1.32E2,5.8E1,3E0,1E0,9.8E1,3.4E1,7E0,5.1E1,8.5E1,1.3E1,3E0,3.1E1,6E0,1E0,9E0,4.2E1,1E0,8.4E1,5E0,8E0,2.4E1,7E0,4E0,2E0,6E0,3E0,3.7E1,5E0,1.9E1,6.5E1,4E0,4E0,7E0,1.7E1,4E0,3E0,3E0,3E0,8E0,2.9E1,1E0,4E0],"tree_param":{"num_deleted":"0","num_feature":"48","num_nodes":"45","size_leaf_vector":"0"}},{"base_weights":[2.761513E-1,2.3433802E-1,1.8181884E0,1.7917785E-1,5.627487E-1,9.111328E-1,2.7232056E0,8.8655394E-1,1.5609674E-1,6.312843E-1,-6.095886E-1,1.1020737E0,1.2237549E-2,7.461949E-2,3.710563E-1,1.0128087E0,4.6618652E-1,1.779773E-1,-1.0325449E-1,1.4914347E0,2.8219458E-1,1.209729E0,3.4700522E-1,-1.852417E-2,6.289917E-1,1.00450546E-1,1.2432617E0,-6.0409546E-1,2.482393E-2,7.500946E-1,1.3185535E-1,-1.4383952E-1,8.0093384E-2,3.127703E-1,8.050537E-1],"categories":[],"categories_nodes":[],"categories_segments":[],"categories_sizes":[],"default_left":[true,true,true,true,true,false,false,true,true,true,false,false,false,true,true,true,true,true,true,false,true,false,false,true,true,false,false,false,false,false,false,false,false,false,false],"id":22,"left_children":[1,3,5,7,9,-1,-1,11,13,15,-1,-1,-1,17,19,21,23,25,27,-1,29,-1,-1,31,33,-1,-1,-1,-1,-1,-1,-1,-1,-1,-1],"loss_changes":[1.2147069E1,3.359167E0,1.6233025E0,2.555571E0,2.5541887E0,0E0,0E0,9.286752E-1,2.7921166E0,1.1655512E0,0E0,0E0,0E0,2.1877673E0,3.9597096E0,4.9798965E-1,1.5899196E0,6.069217E0,2.8374605E0,0E0,2.8555324E0,0E0,0E0,8.5670345E-2,5.8332205E-1,0E0,0E0,0E0,0E0,0E0,0E0,0E0,0E0,0E0,0E0],"parents":[2147483647,0,0,1,1,2,2,3,3,4,4,7,7,8,8,9,9,13,13,14,14,15,15,16,16,17,17,18,18,20,20,23,23,24,24],"right_children":[2,4,6,8,10,-1,-1,12,14,16,-1,-1,-1,18,20,22,24,26,28,-1,30,-1,-1,32,34,-1,-1,-1,-1,-1,-1,-1,-1,-1,-1],"split_conditions":[2.2341666E0,1.0360136E0,1.7914499E0,-2.2978878E0,1.3479747E0,2.7333987E-1,8.169617E-1,9.116654E-1,7.864721E-1,1.6951631E-1,-1.8287659E-1,3.306221E-1,3.6712647E-3,2.2409147E-1,-3.3232093E-2,1.1884601E0,5.112028E-1,8.422519E-1,4.6032202E-1,4.4743043E-1,-1.2535278E-1,3.629187E-1,1.0410157E-1,1.1604393E0,6.726166E-1,3.0135164E-2,3.729785E-1,-1.8122864E-1,7.4471794E-3,2.2502838E-1,3.9556608E-2,-4.315186E-2,2.4028016E-2,9.38311E-2,2.4151613E-1],"split_indices":[10,1,0,20,13,0,0,1,32,22,0,0,0,20,44,1,15,22,20,0,14,0,0,0,22,0,0,0,0,0,0,0,0,0,0],"split_type":[0,0,0,0,0,0,0,0,0,0,0,0,0,0,0,0,0,0,0,0,0,0,0,0,0,0,0,0,0,0,0,0,0,0,0],"sum_hessian":[1.94E2,1.9E2,4E0,1.64E2,2.6E1,3E0,1E0,4E0,1.6E2,2.5E1,1E0,3E0,1E0,1.17E2,4.3E1,6E0,1.9E1,7.4E1,4.3E1,2E0,4.1E1,4E0,2E0,5E0,1.4E1,7E1,4E0,8E0,3.5E1,9E0,3.2E1,2E0,3E0,6E0,8E0],"tree_param":{"num_deleted":"0","num_feature":"48","num_nodes":"35","size_leaf_vector":"0"}},{"base_weights":[2.085216E-1,1.8573329E-1,2.3147278E0,9.3241856E-2,3.1919244E-1,1.3871261E-1,-5.379524E-1,4.7004607E-1,7.044983E-2,4.0665436E-1,7.01509E-2,-8.048035E-1,-6.990051E-2,5.6116104E-1,5.8581542E-2,-2.0319591E-1,3.75885E-1,5.271598E-1,-1.0849609E-1,-2.6913114E-2,3.0264634E-1,-9.3556976E-1,-1.4086914E-1,4.3176398E-1,1.3805878E0,3.2077536E-1,-2.6776734E-1,-4.5114815E-1,6.7333646E-2,5.656433E-1,7.8212194E-2,6.285461E-1,1.5171051E-2,-2.5787354E-1,7.7046715E-2,-3.159607E-1,6.2120087E-2,7.580363E-1,5.813768E-2,-2.747396E-1,4.814036E-1,6.290436E-2,5.576782E-1,-4.075521E-1,-3.8726807E-2,-7.4344635E-1,-1.8109131E-1,2.0201983E-1,-2.6937866E-1,7.239772E-1,7.6497397E-3,-5.066681E-2,1.8753815E-1],"categories":[],"categories_nodes":[],"categories_segments":[],"categories_sizes":[],"default_left":[true,true,false,true,true,true,true,true,true,true,true,true,false,true,true,true,true,true,true,true,true,false,false,true,false,true,true,true,true,true,true,false,false,false,false,false,false,false,false,false,false,false,false,false,false,false,false,false,false,false,false,false,false],"id":23,"left_children":[1,3,-1,5,7,9,11,13,15,17,19,21,-1,23,25,27,29,31,33,35,37,-1,-1,39,-1,41,43,45,47,49,51,-1,-1,-1,-1,-1,-1,-1,-1,-1,-1,-1,-1,-1,-1,-1,-1,-1,-1,-1,-1,-1,-1],"loss_changes":[8.929472E0,2.3649397E0,0E0,3.4039226E0,2.9312592E0,1.9738622E0,9.42945E-1,1.8041649E0,2.6673903E0,1.4229205E0,1.9940358E0,3.0230856E-1,0E0,3.6451693E0,9.4155973E-1,1.1707103E0,8.0304813E-1,9.248204E-1,1.5844786E-1,1.6409218E0,2.850946E0,0E0,0E0,1.3948011E0,0E0,3.3146185E-1,1.4429867E-1,5.758027E-1,4.625743E-1,7.896054E-1,1.081307E-1,0E0,0E0,0E0,0E0,0E0,0E0,0E0,0E0,0E0,0E0,0E0,0E0,0E0,0E0,0E0,0E0,0E0,0E0,0E0,0E0,0E0,0E0],"parents":[2147483647,0,0,1,1,3,3,4,4,5,5,6,6,7,7,8,8,9,9,10,10,11,11,13,13,14,14,15,15,16,16,17,17,18,18,19,19,20,20,23,23,25,25,26,26,27,27,28,28,29,29,30,30],"right_children":[2,4,-1,6,8,10,12,14,16,18,20,22,-1,24,26,28,30,32,34,36,38,-1,-1,40,-1,42,44,46,48,50,52,-1,-1,-1,-1,-1,-1,-1,-1,-1,-1,-1,-1,-1,-1,-1,-1,-1,-1,-1,-1,-1,-1],"split_conditions":[1.7951351E0,4.6199614E-1,6.944184E-1,5.248101E-1,1.0740156E0,-8.102037E-1,2.2876805E-1,1.1232264E0,1.2846348E0,1.1846726E0,-2.2395748E-1,5.483788E-1,-2.0970155E-2,1.0216653E0,3.4798527E-1,1.0103273E0,2.0935152E0,-8.5563195E-1,9.35758E-1,-5.468268E-1,-5.242018E-1,-2.8067094E-1,-4.2260744E-2,-1.491263E-1,4.1417637E-1,-8.040943E-1,6.5799284E-1,-1.0628667E0,4.9271595E-1,1.4066485E0,1.1151047E0,1.8856384E-1,4.5513157E-3,-7.736206E-2,2.3114014E-2,-9.4788216E-2,1.8636027E-2,2.274109E-1,1.7441304E-2,-8.2421884E-2,1.4442109E-1,1.8871307E-2,1.6730347E-1,-1.2226563E-1,-1.1618042E-2,-2.2303392E-1,-5.4327395E-2,6.060595E-2,-8.08136E-2,2.1719317E-1,2.294922E-3,-1.5200043E-2,5.6261446E-2],"split_indices":[0,15,0,46,16,45,22,22,43,29,21,7,0,22,21,7,45,15,3,4,31,0,0,18,0,8,10,14,28,39,15,0,0,0,0,0,0,0,0,0,0,0,0,0,0,0,0,0,0,0,0,0,0],"split_type":[0,0,0,0,0,0,0,0,0,0,0,0,0,0,0,0,0,0,0,0,0,0,0,0,0,0,0,0,0,0,0,0,0,0,0,0,0,0,0,0,0,0,0,0,0,0,0,0,0,0,0,0,0],"sum_hessian":[1.94E2,1.93E2,1E0,1.15E2,7.8E1,1.08E2,7E0,4.8E1,3E1,2.1E1,8.7E1,4E0,3E0,3.9E1,9E0,1.6E1,1.4E1,1.7E1,4E0,6.2E1,2.5E1,3E0,1E0,3.5E1,4E0,5E0,4E0,8E0,8E0,8E0,6E0,1.4E1,3E0,2E0,2E0,1.4E1,4.8E1,8E0,1.7E1,2E0,3.3E1,3E0,2E0,2E0,2E0,3E0,5E0,6E0,2E0,6E0,2E0,3E0,3E0],"tree_param":{"num_deleted":"0","num_feature":"48","num_nodes":"53","size_leaf_vector":"0"}},{"base_weights":[1.5185978E-1,1.3235874E-1,1.9675293E0,7.778888E-2,2.838431E-1,4.976643E-2,6.191188E-1,2.1441813E-1,8.796692E-1,9.113036E-2,-1.9883728E-1,7.110036E-1,3.390503E-2,5.8277893E-1,1.7605764E-1,9.6595E-1,2.6727295E-1,4.0878136E-2,2.784436E-1,-3.5549316E-1,2.2594197E-1,1.4944458E-1,7.934265E-1,-1.1732483E-1,2.1667911E-1,-9.978653E-2,1.44994E-1,7.0215183E-1,3.774845E-2,2.0506795E-1,-4.575078E-1,3.671112E-1,-3.7597656E-2,-1.5927124E-1,4.6203613E-2,-6.000095E-3,2.7433828E-1],"categories":[],"categories_nodes":[],"categories_segments":[],"categories_sizes":[],"default_left":[true,true,false,true,true,true,true,true,true,true,true,true,false,false,true,false,false,true,true,true,true,false,false,true,true,false,false,false,false,false,false,false,false,false,false,false,false],"id":24,"left_children":[1,3,-1,5,7,9,11,13,15,17,19,21,-1,-1,23,-1,-1,25,27,29,31,-1,-1,33,35,-1,-1,-1,-1,-1,-1,-1,-1,-1,-1,-1,-1],"loss_changes":[6.6440268E0,1.5816171E0,0E0,2.1535814E0,1.9210086E0,1.4372054E0,3.5229897E-1,5.615308E-1,6.018162E-3,1.1087539E0,1.4112043E0,1.5913868E-1,0E0,0E0,5.497974E-1,0E0,0E0,1.4057838E0,2.523108E0,9.516015E-1,2.370246E-1,0E0,0E0,4.8515506E-2,5.023862E-1,0E0,0E0,0E0,0E0,0E0,0E0,0E0,0E0,0E0,0E0,0E0,0E0],"parents":[2147483647,0,0,1,1,3,3,4,4,5,5,6,6,7,7,8,8,9,9,10,10,11,11,14,14,17,17,18,18,19,19,20,20,23,23,24,24],"right_children":[2,4,-1,6,8,10,12,14,16,18,20,22,-1,-1,24,-1,-1,26,28,30,32,-1,-1,34,36,-1,-1,-1,-1,-1,-1,-1,-1,-1,-1,-1,-1],"split_conditions":[1.7951351E0,-2.3897603E-2,5.9025884E-1,1.1647758E0,1.174851E0,-2.2419992E-1,1.5865455E0,-1.2084708E0,8.3920085E-1,9.943099E-1,6.3605917E-1,-2.3876343E0,1.0171509E-2,1.7483369E-1,-3.0187112E-1,2.8978503E-1,8.018189E-2,-5.032797E-1,-4.3764162E-1,-8.341016E-1,3.150766E-1,4.4833377E-2,2.3802796E-1,1.3141991E0,-1.0734512E0,-2.993596E-2,4.3498203E-2,2.1064556E-1,1.1324535E-2,6.1520386E-2,-1.3725235E-1,1.10133365E-1,-1.1279297E-2,-4.7781374E-2,1.3861084E-2,-1.8000286E-3,8.230148E-2],"split_indices":[0,4,0,35,33,4,5,34,0,17,45,32,0,0,16,0,0,42,10,22,0,0,0,0,5,0,0,0,0,0,0,0,0,0,0,0,0],"split_type":[0,0,0,0,0,0,0,0,0,0,0,0,0,0,0,0,0,0,0,0,0,0,0,0,0,0,0,0,0,0,0,0,0,0,0,0,0],"sum_hessian":[1.94E2,1.93E2,1E0,1.43E2,5E1,1.37E2,6E0,4.6E1,4E0,1.18E2,1.9E1,5E0,1E0,3E0,4.3E1,3E0,1E0,9.4E1,2.4E1,1.4E1,5E0,1E0,4E0,5E0,3.8E1,4E1,5.4E1,8E0,1.6E1,2E0,1.2E1,3E0,2E0,4E0,1E0,8E0,3E1],"tree_param":{"num_deleted":"0","num_feature":"48","num_nodes":"37","size_leaf_vector":"0"}},{"base_weights":[1.15190946E-1,9.854354E-2,1.6723938E0,5.004992E-1,8.305294E-2,1.1743673E0,-3.921509E-3,1.0934503E-2,1.8461823E-1,2.2474289E-1,-4.5928955E-1,2.3074447E-1,-6.599831E-2,9.7262573E-1,1.510835E-1,2.6584372E-1,5.0720215E-2,8.208847E-2,7.86911E-1,-1.242095E-1,1.6730455E-1,2.2094963E-1,-7.014385E-2,1.5591846E-1,-4.8669434E-1,8.882812E-1,1.400299E-1,-7.092725E-2,-4.5970324E-1,4.9105835E-1,2.991427E-2,2.649942E-1,-4.8292372E-2,-3.4280396E-1,2.0953064E-1],"categories":[],"categories_nodes":[],"categories_segments":[],"categories_sizes":[],"default_left":[true,true,false,true,true,false,true,true,true,true,false,true,true,false,true,false,false,true,true,true,true,true,true,false,false,false,false,false,false,false,false,false,false,false,false],"id":25,"left_children":[1,3,-1,5,7,-1,9,11,13,15,-1,17,19,-1,21,-1,-1,23,25,27,29,31,33,-1,-1,-1,-1,-1,-1,-1,-1,-1,-1,-1,-1],"loss_changes":[4.890257E0,1.1663797E0,0E0,2.383996E0,1.3750308E0,0E0,6.2385434E-1,1.892305E0,1.9142516E0,1.5126243E-2,0E0,2.3330507E0,1.1479903E0,0E0,1.190177E0,0E0,0E0,1.0837222E0,2.690611E-1,1.1650773E0,7.4148095E-1,7.005987E-1,1.5206933E0,0E0,0E0,0E0,0E0,0E0,0E0,0E0,0E0,0E0,0E0,0E0,0E0],"parents":[2147483647,0,0,1,1,3,3,4,4,6,6,7,7,8,8,9,9,11,11,12,12,14,14,17,17,18,18,19,19,20,20,21,21,22,22],"right_children":[2,4,-1,6,8,-1,10,12,14,16,-1,18,20,-1,22,-1,-1,24,26,28,30,32,34,-1,-1,-1,-1,-1,-1,-1,-1,-1,-1,-1,-1],"split_conditions":[1.7951351E0,-6.0551786E-1,5.0171816E-1,-8.5083157E-1,4.6199614E-1,3.523102E-1,1.0645323E0,-1.1159072E0,-5.880843E-1,8.760543E-1,-1.3778687E-1,-1.3468034E0,4.570908E-1,2.9178774E-1,1.2337081E0,7.9753116E-2,1.5216065E-2,-6.768873E-1,1.1426266E0,-1.5555236E-1,-3.1176254E-1,1.1480882E0,1.1535885E0,4.6775542E-2,-1.4600831E-1,2.6648438E-1,4.2008974E-2,-2.1278175E-2,-1.3791098E-1,1.4731751E-1,8.974281E-3,7.949826E-2,-1.4487713E-2,-1.0284119E-1,6.285919E-2],"split_indices":[0,4,0,43,15,0,11,20,28,0,0,20,7,0,40,0,0,15,1,7,28,39,15,0,0,0,0,0,0,0,0,0,0,0,0],"split_type":[0,0,0,0,0,0,0,0,0,0,0,0,0,0,0,0,0,0,0,0,0,0,0,0,0,0,0,0,0,0,0,0,0,0,0],"sum_hessian":[1.94E2,1.93E2,1E0,6E0,1.87E2,2E0,4E0,1.1E2,7.7E1,3E0,1E0,2.8E1,8.2E1,2E0,7.5E1,2E0,1E0,2.3E1,5E0,6.6E1,1.6E1,5.7E1,1.8E1,2.1E1,2E0,4E0,1E0,5.8E1,8E0,4E0,1.2E1,4.9E1,8E0,9E0,9E0],"tree_param":{"num_deleted":"0","num_feature":"48","num_nodes":"35","size_leaf_vector":"0"}},{"base_weights":[8.747903E-2,7.327491E-2,1.4215393E0,-2.4667358E-1,8.65707E-2,-3.4685057E-1,-5.9783936E-2,7.2076416E-1,7.581853E-2,-3.9570618E-1,-7.571411E-2,2.5665283E-2,-9.6822105E-2,3.5390854E-2,1.8426543E-1,3.5608292E-1,1.5228626E-2,1.3334025E-1,6.1592406E-1,5.079193E-1,1.6339722E-1,-9.04641E-3,2.7645597E-1,2.246088E-1,1.3991583E-2,6.931381E-1,1.5353394E-1],"categories":[],"categories_nodes":[],"categories_segments":[],"categories_sizes":[],"default_left":[true,true,false,true,true,true,true,false,true,false,false,false,false,true,true,true,true,true,true,false,false,false,false,false,false,false,false],"id":26,"left_children":[1,3,-1,5,7,9,11,-1,13,-1,-1,-1,-1,15,17,19,21,23,25,-1,-1,-1,-1,-1,-1,-1,-1],"loss_changes":[3.5909214E0,8.466246E-1,0E0,1.2904024E-1,1.2204973E0,3.627217E-2,1.5144497E-2,0E0,8.0456614E-1,0E0,0E0,0E0,0E0,8.739351E-1,1.0169873E0,1.5106106E-1,8.2052904E-1,4.9792522E-1,7.209492E-2,0E0,0E0,0E0,0E0,0E0,0E0,0E0,0E0],"parents":[2147483647,0,0,1,1,3,3,4,4,5,5,6,6,8,8,13,13,14,14,15,15,16,16,17,17,18,18],"right_children":[2,4,-1,6,8,10,12,-1,14,-1,-1,-1,-1,16,18,20,22,24,26,-1,-1,-1,-1,-1,-1,-1,-1],"split_conditions":[1.7951351E0,-1.8858792E0,4.2646182E-1,1.9653647E-1,-2.4010582E0,-3.3195528E-1,6.10301E-1,2.1622926E-1,-2.3897603E-2,-1.1871186E-1,-2.2714235E-2,7.699585E-3,-2.9046632E-2,-1.5038106E0,1.174851E0,-8.865395E-1,1.0839956E0,9.041575E-1,8.3920085E-1,1.523758E-1,4.901917E-2,-2.713923E-3,8.293679E-2,6.738264E-2,4.197475E-3,2.0794144E-1,4.6060182E-2],"split_indices":[0,46,0,0,20,4,0,0,4,0,0,0,0,18,33,34,17,21,0,0,0,0,0,0,0,0,0],"split_type":[0,0,0,0,0,0,0,0,0,0,0,0,0,0,0,0,0,0,0,0,0,0,0,0,0,0,0],"sum_hessian":[1.94E2,1.93E2,1E0,7E0,1.86E2,4E0,3E0,2E0,1.84E2,3E0,1E0,1E0,2E0,1.35E2,4.9E1,7E0,1.28E2,4.5E1,4E0,3E0,4E0,1.18E2,1E1,2.5E1,2E1,3E0,1E0],"tree_param":{"num_deleted":"0","num_feature":"48","num_nodes":"27","size_leaf_vector":"0"}},{"base_weights":[6.680736E-2,4.9105328E-2,8.9980316E-1,2.0404816E-1,2.4688447E-2,2.1981812E-1,1.0531921E0,-1.8091838E-1,2.4366696E-1,-3.0850774E-1,4.7876153E-2,7.217189E-2,4.3978187E-1,1.5903728E-1,-4.3007743E-1,3.8900417E-1,2.6949786E-2,1.4537465E-3,2.4860382E-1,-1.7562866E-1,5.188858E-1,-4.5738602E-1,-1.0580444E-1,-8.4238686E-2,5.3625053E-1,-1.5537597E-1,6.319934E-2,-1.01882935E-1,1.04548134E-1,1.5540569E-1,5.903301E-1,-2.1411133E-1,8.7753296E-2,-2.5994873E-1,9.933472E-2,7.0062864E-1,3.6336977E-2],"categories":[],"categories_nodes":[],"categories_segments":[],"categories_sizes":[],"default_left":[true,true,true,true,true,false,false,false,true,true,true,true,true,false,true,true,true,true,false,false,true,false,false,true,false,true,true,false,false,false,false,false,false,false,false,false,false],"id":27,"left_children":[1,3,5,7,9,-1,-1,-1,11,13,15,17,19,-1,21,23,25,27,-1,-1,29,-1,-1,31,-1,33,35,-1,-1,-1,-1,-1,-1,-1,-1,-1,-1],"loss_changes":[2.8312302E0,7.2134066E-1,1.8569827E-1,4.4063365E-1,1.3050214E0,0E0,0E0,0E0,7.754458E-1,6.936306E-1,1.1102718E0,1.7431572E-1,6.266265E-1,0E0,3.1305432E-2,6.723225E-1,9.945946E-1,1.2783943E-1,0E0,0E0,1.6794515E-1,0E0,0E0,8.580013E-2,0E0,6.917169E-1,2.1148987E0,0E0,0E0,0E0,0E0,0E0,0E0,0E0,0E0,0E0,0E0],"parents":[2147483647,0,0,1,1,2,2,3,3,4,4,8,8,9,9,10,10,11,11,12,12,14,14,15,15,16,16,17,17,20,20,23,23,25,25,26,26],"right_children":[2,4,6,8,10,-1,-1,-1,12,14,16,18,20,-1,22,24,26,28,-1,-1,30,-1,-1,32,-1,34,36,-1,-1,-1,-1,-1,-1,-1,-1,-1,-1],"split_conditions":[2.2713466E0,-8.102037E-1,2.4540731E-1,-1.4055259E0,-7.069055E-1,6.594544E-2,3.1595767E-1,-5.4275516E-2,-1.0988047E0,-1.6618202E0,-6.5295756E-1,1.6092756E0,-5.9518623E-1,4.7711186E-2,4.25393E-1,-9.6608794E-1,-6.515091E-1,-1.3804126E0,7.4581146E-2,-5.2688602E-2,-1.370702E0,-1.3721581E-1,-3.1741336E-2,-1.146663E0,1.6087517E-1,-3.061665E-1,-4.2606276E-1,-3.0564882E-2,3.136444E-2,4.6621706E-2,1.7709905E-1,-6.42334E-2,2.632599E-2,-7.798462E-2,2.9800417E-2,2.101886E-1,1.09010935E-2],"split_indices":[10,45,0,0,45,0,0,0,10,46,45,14,28,0,4,10,16,46,0,0,2,0,0,0,0,45,39,0,0,0,0,0,0,0,0,0,0],"split_type":[0,0,0,0,0,0,0,0,0,0,0,0,0,0,0,0,0,0,0,0,0,0,0,0,0,0,0,0,0,0,0,0,0,0,0,0,0],"sum_hessian":[1.94E2,1.91E2,3E0,2.5E1,1.66E2,1E0,2E0,2E0,2.3E1,1E1,1.56E2,1.3E1,1E1,2E0,8E0,8E0,1.48E2,1E1,3E0,1E0,9E0,7E0,1E0,2E0,6E0,2.4E1,1.24E2,5E0,5E0,2E0,7E0,1E0,1E0,1.7E1,7E0,4E0,1.2E2],"tree_param":{"num_deleted":"0","num_feature":"48","num_nodes":"37","size_leaf_vector":"0"}},{"base_weights":[5.0602682E-2,4.0035445E-2,1.0503235E0,-2.921219E-1,5.0368294E-2,-7.310486E-2,-3.833542E-1,3.877996E-1,3.909136E-2,-1.974945E-1,8.783722E-2,1.7171223E-1,4.529152E-1,-1.7801666E-1,5.9414655E-2,-4.1380614E-1,1.8425642E-1,2.635193E-1,3.9279275E-2,-2.4929373E-1,-5.9825134E-1,2.3546855E-1,-6.150818E-2,1.0815899E-1,8.489075E-1,-2.172905E-3,1.508571E-1],"categories":[],"categories_nodes":[],"categories_segments":[],"categories_sizes":[],"default_left":[true,true,false,true,true,true,false,true,true,false,false,false,false,true,true,true,true,true,true,false,false,false,false,false,false,false,false],"id":28,"left_children":[1,3,-1,5,7,9,-1,11,13,-1,-1,-1,-1,15,17,19,21,23,25,-1,-1,-1,-1,-1,-1,-1,-1],"loss_changes":[2.017986E0,6.805472E-1,0E0,9.186351E-2,7.0402145E-1,7.740596E-2,0E0,6.652832E-3,8.224493E-1,0E0,0E0,0E0,0E0,1.4429696E0,6.841926E-1,1.5429485E-1,1.0258615E-1,1.2723744E0,7.1722513E-1,0E0,0E0,0E0,0E0,0E0,0E0,0E0,0E0],"parents":[2147483647,0,0,1,1,3,3,4,4,5,5,7,7,8,8,13,13,14,14,15,15,16,16,17,17,18,18],"right_children":[2,4,-1,6,8,10,-1,12,14,-1,-1,-1,-1,16,18,20,22,24,26,-1,-1,-1,-1,-1,-1,-1,-1],"split_conditions":[1.7951351E0,-1.5886056E0,3.1509706E-1,-1.6185107E0,-1.5119549E0,-1.6251488E0,-1.1500626E-1,-1.5789146E0,-1.1492182E0,-5.9248354E-2,2.6351167E-2,5.1513672E-2,1.3587457E-1,4.9601135E-1,-1.0112791E0,3.0043226E-1,-1.2155442E0,-1.0242459E0,6.230502E-1,-7.478812E-2,-1.7947541E-1,7.064057E-2,-1.8452454E-2,3.24477E-2,2.5467226E-1,-6.5187155E-4,4.5257133E-2],"split_indices":[0,0,0,1,26,0,0,0,1,0,0,0,0,18,30,18,0,6,43,0,0,0,0,0,0,0,0],"split_type":[0,0,0,0,0,0,0,0,0,0,0,0,0,0,0,0,0,0,0,0,0,0,0,0,0,0,0],"sum_hessian":[1.94E2,1.93E2,1E0,5E0,1.88E2,2E0,3E0,5E0,1.83E2,1E0,1E0,2E0,3E0,1.5E1,1.68E2,9E0,6E0,1.4E1,1.54E2,6E0,3E0,5E0,1E0,1.2E1,2E0,1.13E2,4.1E1],"tree_param":{"num_deleted":"0","num_feature":"48","num_nodes":"27","size_leaf_vector":"0"}},{"base_weights":[3.7905492E-2,2.8897157E-2,8.9276123E-1,1.1291892E-1,-4.3178014E-3,2.4617767E-2,3.2661438E-1,-1.0060474E-1,3.797461E-2,2.1501872E-1,-8.617577E-2,-2.1876018E-1,4.2015076E-1,-4.1666508E-2,-2.4938965E-1,6.441142E-1,1.863718E-2,1.0610023E-1,6.153259E-1,-2.0095825E-2,-3.596924E-1,-3.241272E-1,-4.0130615E-3,5.307037E-1,1.1501465E-1,-1.0734113E-1,1.3809544E-1,-5.0805056E-1,-5.6552887E-2,1.5847342E-1,-2.0247007E-2,1.6095276E-1,-5.7556152E-2,-1.7364807E-1,9.956712E-2,-9.552002E-2,6.108975E-1,-1.1962891E-2,1.4974976E-1,-3.247757E-2,-3.8532716E-1,3.018036E-1,5.9407554E-3,-5.84877E-1,-1.00372314E-1,-1.2313334E-1,9.5458984E-2,2.6173183E-1,-4.2037964E-2,-9.907212E-2,8.0039084E-2],"categories":[],"categories_nodes":[],"categories_segments":[],"categories_sizes":[],"default_left":[true,true,false,true,true,true,true,true,true,true,true,true,true,true,true,false,true,true,false,true,false,false,false,true,true,true,true,true,true,true,true,false,false,false,false,false,false,false,false,false,false,false,false,false,false,false,false,false,false,false,false],"id":29,"left_children":[1,3,-1,5,7,9,11,13,15,17,19,21,23,25,27,-1,29,31,-1,33,-1,-1,-1,35,37,39,41,43,45,47,49,-1,-1,-1,-1,-1,-1,-1,-1,-1,-1,-1,-1,-1,-1,-1,-1,-1,-1,-1,-1],"loss_changes":[1.475863E0,5.418988E-1,0E0,1.0297849E0,5.739294E-1,8.6233723E-1,9.0811014E-1,3.6668092E-1,1.1366713E0,5.887265E-1,4.626947E-1,6.6581056E-2,4.112332E-1,3.9260885E-1,5.698202E-1,0E0,5.2520084E-1,1.259644E-1,0E0,4.2152897E-1,0E0,0E0,0E0,5.605452E-1,2.3844332E-2,4.8695007E-1,1.9292022E-1,9.789705E-2,9.272234E-2,4.4579685E-1,6.087144E-1,0E0,0E0,0E0,0E0,0E0,0E0,0E0,0E0,0E0,0E0,0E0,0E0,0E0,0E0,0E0,0E0,0E0,0E0,0E0,0E0],"parents":[2147483647,0,0,1,1,3,3,4,4,5,5,6,6,7,7,8,8,9,9,10,10,11,11,12,12,13,13,14,14,16,16,17,17,19,19,23,23,24,24,25,25,26,26,27,27,28,28,29,29,30,30],"right_children":[2,4,-1,6,8,10,12,14,16,18,20,22,24,26,28,-1,30,32,-1,34,-1,-1,-1,36,38,40,42,44,46,48,50,-1,-1,-1,-1,-1,-1,-1,-1,-1,-1,-1,-1,-1,-1,-1,-1,-1,-1,-1,-1],"split_conditions":[1.7951351E0,-5.238254E-1,2.6782838E-1,-5.301327E-1,-2.9696003E-1,-1.1937511E0,-1.0056765E0,-3.8616294E-1,-5.9680355E-1,-9.7984034E-1,1.1074244E0,-9.788289E-1,1.0479541E0,-3.209619E-1,-1.8025228E-1,1.9323426E-1,-3.7652412E-1,9.4202554E-1,1.8459779E-1,-8.545872E-1,-1.0790772E-1,-9.723816E-2,-1.2039185E-3,-1.9634846E0,1.1884601E0,-2.843718E-1,-8.2886004E-1,1.0455799E0,7.295699E-1,3.494971E-1,8.9621687E-1,4.828583E-2,-1.7266847E-2,-5.2094426E-2,2.9870138E-2,-2.8656008E-2,1.8326925E-1,-3.5888674E-3,4.492493E-2,-9.743271E-3,-1.1559815E-1,9.054108E-2,1.7822267E-3,-1.7546311E-1,-3.0111695E-2,-3.6940005E-2,2.8637696E-2,7.851955E-2,-1.261139E-2,-2.9721638E-2,2.4011726E-2],"split_indices":[0,44,0,42,19,34,5,43,28,10,35,0,41,45,43,0,28,41,0,13,0,0,0,7,1,4,10,0,20,38,46,0,0,0,0,0,0,0,0,0,0,0,0,0,0,0,0,0,0,0,0],"split_type":[0,0,0,0,0,0,0,0,0,0,0,0,0,0,0,0,0,0,0,0,0,0,0,0,0,0,0,0,0,0,0,0,0,0,0,0,0,0,0,0,0,0,0,0,0,0,0,0,0,0,0],"sum_hessian":[1.94E2,1.93E2,1E0,5.4E1,1.39E2,3.9E1,1.5E1,4.2E1,9.7E1,1.4E1,2.5E1,2E0,1.3E1,3.1E1,1.1E1,2E0,9.5E1,1.2E1,2E0,2.1E1,4E0,1E0,1E0,9E0,4E0,2.3E1,8E0,4E0,7E0,2E1,7.5E1,9E0,3E0,9E0,1.2E1,1E0,8E0,1E0,3E0,1.9E1,4E0,3E0,5E0,3E0,1E0,5E0,2E0,1.3E1,7E0,4.2E1,3.3E1],"tree_param":{"num_deleted":"0","num_feature":"48","num_nodes":"51","size_leaf_vector":"0"}},{"base_weights":[2.888121E-2,1.6674582E-2,4.8939818E-1,3.7228033E-2,-1.4290549E-1,2.323227E-1,7.588501E-1,9.587248E-3,1.7128885E-1,-4.3554688E-1,-5.367703E-2,4.5717154E-2,-1.06522955E-1,3.7434387E-1,6.11969E-2,-1.250545E-1,1.5691528E-1,2.4245758E-2,2.5585938E-1,-2.8963336E-1,7.233259E-2,4.2355686E-1,-3.42865E-2,1.727634E-3,3.9761353E-1,-4.9072266E-2,-2.1818542E-1,2.2983806E-1,3.168742E-2,2.4132538E-1,1.0280248E-2,3.3986282E-1,-5.343628E-2,-5.3827923E-2,-3.8339996E-1,-2.135315E-1,1.9870582E-1,1.6783905E-1,5.2344257E-1,8.603414E-2,-1.430446E-1,2.2235107E-2,-1.10565186E-1,4.219055E-2,5.340576E-3],"categories":[],"categories_nodes":[],"categories_segments":[],"categories_sizes":[],"default_left":[true,true,true,true,true,false,false,true,true,false,true,true,true,true,true,true,true,true,true,true,true,true,false,true,false,true,false,false,true,false,false,false,false,false,false,false,false,false,false,false,false,false,false,false,false],"id":30,"left_children":[1,3,5,7,9,-1,-1,11,13,-1,15,17,19,21,23,25,27,29,31,33,35,37,-1,39,-1,41,-1,-1,43,-1,-1,-1,-1,-1,-1,-1,-1,-1,-1,-1,-1,-1,-1,-1,-1],"loss_changes":[1.0880046E0,6.3178515E-1,1.7004931E-1,6.283007E-1,5.510838E-1,0E0,0E0,6.005671E-1,6.253783E-1,0E0,2.901908E-1,4.8560956E-1,1.1344604E0,2.1562159E-1,3.9944208E-1,8.836128E-2,3.8376845E-2,3.006819E-1,2.7798003E-1,3.5524392E-1,6.9269013E-1,1.4202893E-1,0E0,2.3200108E-1,0E0,4.1922517E-2,0E0,0E0,6.048514E-4,0E0,0E0,0E0,0E0,0E0,0E0,0E0,0E0,0E0,0E0,0E0,0E0,0E0,0E0,0E0,0E0],"parents":[2147483647,0,0,1,1,2,2,3,3,4,4,7,7,8,8,10,10,11,11,12,12,13,13,14,14,15,15,16,16,17,17,18,18,19,19,20,20,21,21,23,23,25,25,28,28],"right_children":[2,4,6,8,10,-1,-1,12,14,-1,16,18,20,22,24,26,28,30,32,34,36,38,-1,40,-1,42,-1,-1,44,-1,-1,-1,-1,-1,-1,-1,-1,-1,-1,-1,-1,-1,-1,-1,-1],"split_conditions":[2.2341666E0,1.1050348E0,1.7914499E0,6.230502E-1,1.0392077E0,6.9696814E-2,2.2765504E-1,5.306971E-1,8.958548E-1,-1.3066407E-1,1.391239E0,4.43425E-1,1.657967E-1,1.3592392E0,1.6069646E0,1.4690266E0,1.590697E0,-6.04658E-1,6.906594E-1,-5.2674866E-1,1.7421708E-1,4.7159433E-1,-1.028595E-2,4.5152014E-1,1.1928406E-1,1.2713896E0,-6.545563E-2,6.895142E-2,-7.110257E-1,7.239762E-2,3.0840745E-3,1.0195885E-1,-1.6030885E-2,-1.6148377E-2,-1.1501999E-1,-6.405945E-2,5.961175E-2,5.0351717E-2,1.5703277E-1,2.5810244E-2,-4.2913385E-2,6.6705323E-3,-3.3169556E-2,1.2657166E-2,1.602173E-3],"split_indices":[10,16,0,43,31,0,0,46,43,0,46,15,19,8,31,20,4,4,16,8,44,16,0,18,0,16,0,0,0,0,0,0,0,0,0,0,0,0,0,0,0,0,0,0,0],"split_type":[0,0,0,0,0,0,0,0,0,0,0,0,0,0,0,0,0,0,0,0,0,0,0,0,0,0,0,0,0,0,0,0,0,0,0,0,0,0,0,0,0,0,0,0,0],"sum_hessian":[1.94E2,1.9E2,4E0,1.69E2,2.1E1,3E0,1E0,1.41E2,2.8E1,4E0,1.7E1,1.08E2,3.3E1,9E0,1.9E1,1.3E1,4E0,9.9E1,9E0,1.6E1,1.7E1,8E0,1E0,1.7E1,2E0,8E0,5E0,2E0,2E0,5E0,9.4E1,7E0,2E0,5E0,1.1E1,5E0,1.2E1,3E0,5E0,1.1E1,6E0,4E0,4E0,1E0,1E0],"tree_param":{"num_deleted":"0","num_feature":"48","num_nodes":"45","size_leaf_vector":"0"}},{"base_weights":[2.2690523E-2,1.6157798E-2,6.4501953E-1,-1.918462E-1,2.267561E-2,-2.5918275E-1,7.241821E-2,4.1069794E-1,1.4209132E-2,2.2280376E-1,7.2158896E-3,3.051834E-1,3.869629E-2,-1.2275798E-1,1.884698E-2,1.1749268E-2,4.6295166E-2,2.2737122E-1,-2.2923787E-1,-1.2617375E-1,3.0888416E-2],"categories":[],"categories_nodes":[],"categories_segments":[],"categories_sizes":[],"default_left":[true,true,false,true,true,false,false,false,true,true,true,false,true,true,true,false,false,false,false,false,false],"id":31,"left_children":[1,3,-1,5,7,-1,-1,-1,9,11,13,-1,15,17,19,-1,-1,-1,-1,-1,-1],"loss_changes":[7.8235114E-1,2.67362E-1,0E0,1.2553746E-1,6.1506385E-1,0E0,0E0,0E0,2.6972026E-1,7.919079E-2,2.7593815E-1,0E0,7.036701E-5,6.113479E-1,2.9552236E-1,0E0,0E0,0E0,0E0,0E0,0E0],"parents":[2147483647,0,0,1,1,3,3,4,4,8,8,9,9,10,10,12,12,13,13,14,14],"right_children":[2,4,-1,6,8,-1,-1,-1,10,12,14,-1,16,18,20,-1,-1,-1,-1,-1,-1],"split_conditions":[1.7951351E0,-6.124687E-1,1.9350587E-1,9.473039E-1,-6.055901E-1,-7.7754825E-2,2.1725465E-2,1.2320939E-1,-1.9358768E0,1.1029727E0,-5.7356715E-1,9.155503E-2,7.755269E-1,-6.132965E-1,-1.6175587E0,3.5247805E-3,1.388855E-2,6.821137E-2,-6.877136E-2,-3.7852127E-2,9.2665255E-3],"split_indices":[0,28,0,0,28,0,0,0,42,5,4,0,0,4,15,0,0,0,0,0,0],"split_type":[0,0,0,0,0,0,0,0,0,0,0,0,0,0,0,0,0,0,0,0,0],"sum_hessian":[1.94E2,1.93E2,1E0,5E0,1.88E2,4E0,1E0,3E0,1.85E2,5E0,1.8E2,3E0,2E0,1.4E1,1.66E2,1E0,1E0,3E0,1.1E1,1.2E1,1.54E2],"tree_param":{"num_deleted":"0","num_feature":"48","num_nodes":"21","size_leaf_vector":"0"}},{"base_weights":[1.7621946E-2,9.560108E-3,4.0018463E-1,2.5558382E-2,-1.1522467E-1,1.680603E-1,5.482788E-1,-9.861436E-4,1.04597576E-1,-1.7390272E-1,1.1906128E-1,2.8641887E-2,-1.3877802E-1,3.600769E-2,3.597141E-1,-3.3842772E-1,-1.0272217E-1,1.7769368E-1,2.0741781E-2,7.7685094E-3,1.6674587E-1,-2.6758987E-1,2.6070334E-2,-2.3186035E-1,7.805067E-2,1.5106201E-1,4.3886313E-1,-1.1047363E-2,-1.5242513E-1,3.1219482E-2,-1.0681152E-4,-2.516398E-2,1.3087693E-1,-1.3589478E-1,3.4997898E-1,-9.0789795E-4,-3.4750366E-1,1.434021E-1,-1.4340821E-1,2.2752498E-1,-2.8329147E-2,-3.416748E-2,5.227661E-2,-1.7603847E-1,-4.6518963E-2],"categories":[],"categories_nodes":[],"categories_segments":[],"categories_sizes":[],"default_left":[true,true,true,true,true,false,false,true,true,true,true,true,true,true,true,false,true,false,true,true,true,true,true,false,true,false,false,true,true,false,false,false,false,false,false,false,false,false,false,false,false,false,false,false,false],"id":32,"left_children":[1,3,5,7,9,-1,-1,11,13,15,17,19,21,23,25,-1,27,-1,29,31,33,35,37,-1,39,-1,-1,41,43,-1,-1,-1,-1,-1,-1,-1,-1,-1,-1,-1,-1,-1,-1,-1,-1],"loss_changes":[5.97585E-1,3.8624245E-1,4.53611E-2,3.5887104E-1,3.2314885E-1,0E0,0E0,5.3061765E-1,7.394793E-1,1.7603362E-1,2.5137864E-2,3.071532E-1,4.953678E-1,4.1226587E-1,8.233595E-2,0E0,6.2107235E-2,0E0,6.5867056E-4,3.8439444E-1,8.239132E-1,2.7673495E-1,2.3930241E-1,0E0,4.9937814E-1,0E0,0E0,1.0570507E-2,1.4318064E-2,0E0,0E0,0E0,0E0,0E0,0E0,0E0,0E0,0E0,0E0,0E0,0E0,0E0,0E0,0E0,0E0],"parents":[2147483647,0,0,1,1,2,2,3,3,4,4,7,7,8,8,9,9,10,10,11,11,12,12,13,13,14,14,16,16,18,18,19,19,20,20,21,21,22,22,24,24,27,27,28,28],"right_children":[2,4,6,8,10,-1,-1,12,14,16,18,20,22,24,26,-1,28,-1,30,32,34,36,38,-1,40,-1,-1,42,44,-1,-1,-1,-1,-1,-1,-1,-1,-1,-1,-1,-1,-1,-1,-1,-1],"split_conditions":[2.2713466E0,1.1050348E0,1.2431543E0,6.782079E-1,1.391239E0,5.0418094E-2,1.6448365E-1,5.306971E-1,4.6228066E-1,1.0392077E0,1.590697E0,1.0414145E0,1.6881268E-1,-1.087631E0,6.5442383E-1,-1.01528324E-1,1.3346548E0,5.3308107E-2,-7.110257E-1,-2.3666228E-1,-5.0258636E-1,-4.686336E-1,7.653404E-1,-6.955811E-2,7.826829E-2,4.5318604E-2,1.3165894E-1,6.5554875E-1,6.797074E-1,9.3658455E-3,-3.204346E-5,-7.549194E-3,3.926308E-2,-4.0768433E-2,1.049937E-1,-2.723694E-4,-1.042511E-1,4.3020632E-2,-4.3022465E-2,6.8257496E-2,-8.498744E-3,-1.0250244E-2,1.5682984E-2,-5.2811544E-2,-1.3955689E-2],"split_indices":[10,16,0,22,46,0,0,46,45,31,4,24,19,32,40,0,31,0,0,45,4,19,15,0,43,0,0,0,1,0,0,0,0,0,0,0,0,0,0,0,0,0,0,0,0],"split_type":[0,0,0,0,0,0,0,0,0,0,0,0,0,0,0,0,0,0,0,0,0,0,0,0,0,0,0,0,0,0,0,0,0,0,0,0,0,0,0,0,0,0,0,0,0],"sum_hessian":[1.94E2,1.91E2,3E0,1.7E2,2.1E1,2E0,1E0,1.28E2,4.2E1,1.7E1,4E0,1.06E2,2.2E1,3.4E1,8E0,4E0,1.3E1,2E0,2E0,9.3E1,1.3E1,1.2E1,1E1,4E0,3E1,3E0,5E0,5E0,8E0,1E0,1E0,7.4E1,1.9E1,5E0,8E0,3E0,9E0,6E0,4E0,1.2E1,1.8E1,4E0,1E0,6E0,2E0],"tree_param":{"num_deleted":"0","num_feature":"48","num_nodes":"45","size_leaf_vector":"0"}},{"base_weights":[1.3733771E-2,6.9930553E-3,3.3385468E-1,9.756225E-2,-6.52613E-3,1.3445027E-1,4.6603394E-1,-4.778694E-3,2.800327E-1,6.7071854E-3,-1.3266182E-1,6.440953E-2,-2.457428E-1,3.5284424E-1,1.0080719E-1,-9.552114E-3,1.3734347E-1,-3.787918E-1,-4.672476E-2,9.435018E-2,-7.6822914E-2,7.551575E-2,3.9320678E-1,1.17360435E-1,2.557373E-2,1.8400879E-1,-1.6757019E-2,3.544922E-1,6.549072E-2,3.6685944E-2,-1.5015157E-1,1.2808906E-1,-5.1498413E-3,2.0845032E-1,4.3121338E-2,-3.852815E-2,6.264733E-2,1.1199396E-1,-7.876587E-2,-5.227661E-2,1.3871765E-1,-2.0576477E-1,-2.5950113E-2],"categories":[],"categories_nodes":[],"categories_segments":[],"categories_sizes":[],"default_left":[true,true,true,true,true,false,false,true,true,true,true,true,false,true,true,true,true,false,true,true,false,false,false,false,false,true,true,false,true,true,true,false,false,false,false,false,false,false,false,false,false,false,false],"id":33,"left_children":[1,3,5,7,9,-1,-1,11,13,15,17,19,-1,21,23,25,27,-1,29,31,-1,-1,-1,-1,-1,33,35,-1,37,39,41,-1,-1,-1,-1,-1,-1,-1,-1,-1,-1,-1,-1],"loss_changes":[4.184449E-1,2.3572569E-1,4.2770118E-2,4.681931E-1,2.8131425E-1,0E0,0E0,2.992501E-1,8.187789E-2,3.2629225E-1,3.2072806E-1,6.644854E-2,0E0,3.746879E-2,1.980085E-3,1.94142E-1,2.4203047E-1,0E0,1.1765818E-1,4.094386E-2,0E0,0E0,0E0,0E0,0E0,8.228868E-3,2.3233378E-1,0E0,1.0273888E-1,7.9867706E-2,3.610383E-2,0E0,0E0,0E0,0E0,0E0,0E0,0E0,0E0,0E0,0E0,0E0,0E0],"parents":[2147483647,0,0,1,1,2,2,3,3,4,4,7,7,8,8,9,9,10,10,11,11,13,13,14,14,15,15,16,16,18,18,19,19,25,25,26,26,28,28,29,29,30,30],"right_children":[2,4,6,8,10,-1,-1,12,14,16,18,20,-1,22,24,26,28,-1,30,32,-1,-1,-1,-1,-1,34,36,-1,38,40,42,-1,-1,-1,-1,-1,-1,-1,-1,-1,-1,-1,-1],"split_conditions":[2.2713466E0,-1.1632135E0,1.2431543E0,-8.2738703E-1,9.548319E-1,4.033508E-2,1.3981019E-1,-1.2975476E0,-7.763593E-1,1.0990711E0,9.2734206E-1,-3.1992775E-1,-7.372284E-2,-6.1694914E-1,1.0502884E0,-1.792506E0,-5.639097E-1,-1.13637544E-1,-2.3353775E-1,1.5872046E0,-2.3046875E-2,2.2654725E-2,1.1796204E-1,3.5208132E-2,7.6721194E-3,8.553756E-1,1.1770773E0,1.0634766E-1,1.0654454E0,-2.6731423E-1,1.6822362E-1,3.842672E-2,-1.5449525E-3,6.25351E-2,1.2936402E-2,-1.1558446E-2,1.87942E-2,3.359819E-2,-2.3629762E-2,-1.5682984E-2,4.1615296E-2,-6.1729435E-2,-7.7850344E-3],"split_indices":[10,34,0,18,38,0,0,10,43,27,14,8,0,0,0,44,32,0,4,38,0,0,0,0,0,0,33,0,23,28,4,0,0,0,0,0,0,0,0,0,0,0,0],"split_type":[0,0,0,0,0,0,0,0,0,0,0,0,0,0,0,0,0,0,0,0,0,0,0,0,0,0,0,0,0,0,0,0,0,0,0,0,0,0,0,0,0,0,0],"sum_hessian":[1.94E2,1.91E2,3E0,2.4E1,1.67E2,2E0,1E0,1.6E1,8E0,1.52E2,1.5E1,1.3E1,3E0,5E0,3E0,1.36E2,1.6E1,3E0,1.2E1,1.1E1,2E0,1E0,4E0,2E0,1E0,4E0,1.32E2,3E0,1.3E1,7E0,5E0,8E0,3E0,3E0,1E0,1.04E2,2.8E1,1E1,3E0,4E0,3E0,3E0,2E0],"tree_param":{"num_deleted":"0","num_feature":"48","num_nodes":"43","size_leaf_vector":"0"}},{"base_weights":[1.138736E-2,7.3623657E-3,3.9611816E-1,-1.5258534E-1,1.2401117E-2,-2.5121054E-2,-2.1003723E-1,3.3633423E-1,5.3681405E-3,-1.2059784E-1,8.291626E-2,-7.560181E-2,1.7830366E-2,-1.7791952E-1,7.079523E-2,2.0009358E-1,-7.627333E-4,-7.7027895E-2,-3.1641898E-1,1.09996796E-1,-2.5306702E-2,3.120592E-1,2.7553013E-2,-2.5823975E-1,8.182738E-3],"categories":[],"categories_nodes":[],"categories_segments":[],"categories_sizes":[],"default_left":[true,true,false,true,true,true,false,false,true,false,false,true,true,true,true,true,true,false,false,false,false,false,false,false,false],"id":34,"left_children":[1,3,-1,5,7,9,-1,-1,11,-1,-1,13,15,17,19,21,23,-1,-1,-1,-1,-1,-1,-1,-1],"loss_changes":[2.990488E-1,1.5824395E-1,0E0,3.866203E-2,4.2877692E-1,4.0944684E-2,0E0,0E0,1.8903424E-1,0E0,0E0,3.8707113E-1,5.4914445E-1,1.8522844E-1,4.4224463E-2,2.8118092E-1,3.4299457E-1,0E0,0E0,0E0,0E0,0E0,0E0,0E0,0E0],"parents":[2147483647,0,0,1,1,3,3,4,4,5,5,8,8,11,11,12,12,13,13,14,14,15,15,16,16],"right_children":[2,4,-1,6,8,10,-1,-1,12,-1,-1,14,16,18,20,22,24,-1,-1,-1,-1,-1,-1,-1,-1],"split_conditions":[1.7951351E0,-1.5886056E0,1.1883546E-1,-1.6185107E0,-1.691012E0,-1.6251488E0,-6.301117E-2,1.0090027E-1,-1.105443E0,-3.6179353E-2,2.4874879E-2,4.9329513E-1,-1.044845E0,-5.857798E-1,-1.2155442E0,-9.554262E-1,-1.0253999E0,-2.3108369E-2,-9.4925694E-2,3.299904E-2,-7.592011E-3,9.361776E-2,8.265904E-3,-7.747193E-2,2.4548215E-3],"split_indices":[0,0,0,1,17,0,0,0,25,0,0,18,3,7,0,12,3,0,0,0,0,0,0,0,0],"split_type":[0,0,0,0,0,0,0,0,0,0,0,0,0,0,0,0,0,0,0,0,0,0,0,0,0],"sum_hessian":[1.94E2,1.93E2,1E0,5E0,1.88E2,2E0,3E0,3E0,1.85E2,1E0,1E0,2.4E1,1.61E2,1.4E1,1E1,1.4E1,1.47E2,9E0,5E0,7E0,3E0,8E0,6E0,4E0,1.43E2],"tree_param":{"num_deleted":"0","num_feature":"48","num_nodes":"25","size_leaf_vector":"0"}},{"base_weights":[8.388734E-3,3.3574104E-3,2.477951E-1,1.4822863E-2,-7.0415206E-2,1.0592651E-1,3.3670044E-1,2.2640536E-2,-1.6710117E-1,-1.03895016E-1,9.0979E-2,5.733937E-3,1.6551208E-1,-1.8964131E-1,-1.5930176E-2,-1.2917368E-1,4.2152405E-2,3.3935547E-2,1.5957642E-1,2.5333634E-2,-7.3538415E-2,-4.042816E-2,2.5468954E-1,-1.9332208E-1,-6.494557E-2,6.385294E-2,-1.1474609E-2,4.2266846E-2,4.470825E-3,-1.1871338E-1,3.5579473E-2,-1.8332587E-1,9.7270966E-2,-8.2141876E-2,2.8666178E-2,3.1586033E-1,5.3382874E-2,-2.4844868E-1,-6.2301636E-2,5.6877136E-3,-9.214401E-2],"categories":[],"categories_nodes":[],"categories_segments":[],"categories_sizes":[],"default_left":[true,true,true,true,true,false,false,true,true,true,true,true,true,false,false,true,true,true,false,true,true,true,true,true,true,false,false,false,false,false,false,false,false,false,false,false,false,false,false,false,false],"id":35,"left_children":[1,3,5,7,9,-1,-1,11,13,15,17,19,21,-1,-1,23,25,27,-1,29,31,33,35,37,39,-1,-1,-1,-1,-1,-1,-1,-1,-1,-1,-1,-1,-1,-1,-1,-1],"loss_changes":[2.340516E-1,1.6344434E-1,1.478599E-2,2.4129446E-1,1.4994192E-1,0E0,0E0,3.87942E-1,2.083087E-2,8.666642E-2,1.4149852E-2,2.2715153E-1,3.225055E-1,0E0,0E0,6.5727055E-2,5.3876285E-3,7.929499E-4,0E0,1.7690203E-1,5.616614E-1,1.9647785E-2,1.3090748E-1,4.952568E-2,2.1656357E-2,0E0,0E0,0E0,0E0,0E0,0E0,0E0,0E0,0E0,0E0,0E0,0E0,0E0,0E0,0E0,0E0],"parents":[2147483647,0,0,1,1,2,2,3,3,4,4,7,7,8,8,9,9,10,10,11,11,12,12,15,15,16,16,17,17,19,19,20,20,21,21,22,22,23,23,24,24],"right_children":[2,4,6,8,10,-1,-1,12,14,16,18,20,22,-1,-1,24,26,28,-1,30,32,34,36,38,40,-1,-1,-1,-1,-1,-1,-1,-1,-1,-1,-1,-1,-1,-1,-1,-1],"split_conditions":[2.2713466E0,1.0908762E0,1.2431543E0,1.2786511E0,1.391239E0,3.1777956E-2,1.0101014E-1,8.9621687E-1,3.0153642E0,6.699668E-1,1.6308624E-1,5.306971E-1,2.601158E-1,-5.6892395E-2,-4.779053E-3,1.1213784E0,1.7418128E0,-7.110257E-1,4.7872927E-2,-1.8858792E0,3.546906E-1,-2.999875E-2,1.1374912E0,8.4266853E-1,-1.1159816E0,1.9155884E-2,-3.442383E-3,1.2680055E-2,1.3412476E-3,-3.5614014E-2,1.0673842E-2,-5.4997765E-2,2.918129E-2,-2.4642564E-2,8.599854E-3,9.47581E-2,1.6014863E-2,-7.453461E-2,-1.8690491E-2,1.7063142E-3,-2.7643206E-2],"split_indices":[10,16,0,22,46,0,0,46,4,38,0,46,7,0,0,15,8,0,0,46,43,0,19,34,0,0,0,0,0,0,0,0,0,0,0,0,0,0,0,0,0],"split_type":[0,0,0,0,0,0,0,0,0,0,0,0,0,0,0,0,0,0,0,0,0,0,0,0,0,0,0,0,0,0,0,0,0,0,0,0,0,0,0,0,0],"sum_hessian":[1.94E2,1.91E2,3E0,1.66E2,2.5E1,2E0,1E0,1.6E2,6E0,2.1E1,4E0,1.44E2,1.6E1,5E0,1E0,1.8E1,3E0,3E0,1E0,1.16E2,2.8E1,5E0,1.1E1,8E0,1E1,2E0,1E0,2E0,1E0,7E0,1.09E2,1.7E1,1.1E1,3E0,2E0,8E0,3E0,5E0,3E0,3E0,7E0],"tree_param":{"num_deleted":"0","num_feature":"48","num_nodes":"41","size_leaf_vector":"0"}},{"base_weights":[6.244679E-3,2.0368893E-3,2.0665741E-1,1.8133545E-1,-1.7685663E-3,8.4747314E-2,2.8619385E-1,8.242798E-2,2.3902893E-1,-1.2585449E-1,3.6954775E-3,1.3931274E-2,-1.4781407E-1,1.4819336E-1,-3.7997894E-3,-1.8696594E-1,-7.170868E-2,2.2662354E-1,-6.500244E-3,7.259369E-2,-1.3632498E-2,4.43573E-2,2.5420532E-1,4.0740967E-2,-3.5827637E-2,-3.2602165E-2,2.3446274E-1,-1.15319386E-1,-3.5110258E-3],"categories":[],"categories_nodes":[],"categories_segments":[],"categories_sizes":[],"default_left":[true,true,true,true,true,false,false,false,false,true,true,false,true,true,true,false,false,true,true,true,true,false,false,false,false,false,false,false,false],"id":36,"left_children":[1,3,5,7,9,-1,-1,-1,-1,11,13,-1,15,17,19,-1,-1,21,23,25,27,-1,-1,-1,-1,-1,-1,-1,-1],"loss_changes":[1.640215E-1,1.3132475E-1,1.4531001E-2,3.122598E-3,1.2860917E-1,0E0,0E0,0E0,0E0,2.6616335E-2,1.9767822E-1,0E0,7.4505955E-3,1.1066693E-1,1.3169058E-1,0E0,0E0,1.888749E-2,7.0014987E-3,3.4820306E-1,1.5912437E-1,0E0,0E0,0E0,0E0,0E0,0E0,0E0,0E0],"parents":[2147483647,0,0,1,1,2,2,3,3,4,4,9,9,10,10,12,12,13,13,14,14,17,17,18,18,19,19,20,20],"right_children":[2,4,6,8,10,-1,-1,-1,-1,12,14,-1,16,18,20,-1,-1,22,24,26,28,-1,-1,-1,-1,-1,-1,-1,-1],"split_conditions":[2.2713466E0,-2.3386803E0,1.2431543E0,7.593521E-1,-2.0918348E0,2.5424195E-2,8.585816E-2,2.4728395E-2,7.170868E-2,-6.303563E-1,-1.2060728E0,4.1793827E-3,9.036547E-1,8.263234E-1,-1.1159072E0,-5.6089785E-2,-2.1512605E-2,-2.515706E0,9.464854E-1,-1.420493E0,-9.966258E-1,1.33071905E-2,7.6261595E-2,1.2222291E-2,-1.0748291E-2,-9.78065E-3,7.033882E-2,-3.4595817E-2,-1.0533078E-3],"split_indices":[10,32,0,0,32,0,0,0,0,4,9,0,5,18,20,0,0,20,0,20,43,0,0,0,0,0,0,0,0],"split_type":[0,0,0,0,0,0,0,0,0,0,0,0,0,0,0,0,0,0,0,0,0,0,0,0,0,0,0,0,0],"sum_hessian":[1.94E2,1.91E2,3E0,3E0,1.88E2,2E0,1E0,2E0,1E0,7E0,1.81E2,1E0,6E0,8E0,1.73E2,3E0,3E0,5E0,3E0,1.9E1,1.54E2,1E0,4E0,1E0,2E0,1.2E1,7E0,1.3E1,1.41E2],"tree_param":{"num_deleted":"0","num_feature":"48","num_nodes":"29","size_leaf_vector":"0"}},{"base_weights":[5.6590545E-3,-2.1559468E-3,8.262634E-2,7.6103443E-3,-1.17104664E-1,7.305908E-3,1.5713501E-1,3.8734335E-2,-1.8124927E-2,1.03601076E-1,-2.1574707E-1,8.042908E-2,-8.190308E-2,2.1128336E-2,1.9297573E-1,-1.2220934E-1,5.977551E-2,-7.3342256E-2,3.0700995E-2,-4.185486E-2,1.5042877E-1,-2.955017E-1,-1.1332703E-1,3.0078125E-1,8.9697264E-2,1.3781738E-1,-1.7193985E-1,-1.7000198E-1,7.320261E-2,-2.1115277E-2,-3.389217E-1,1.7266506E-1,-1.2106546E-3,-1.2634277E-2,2.0899455E-1,-6.632233E-2,-2.220459E-1,1.19189754E-1,-8.408864E-3,-9.678574E-2,6.413608E-2,-1.6998291E-2,3.2779542E-1,-7.2010465E-2,5.1939648E-2],"categories":[],"categories_nodes":[],"categories_segments":[],"categories_sizes":[],"default_left":[true,true,true,true,true,true,true,true,true,true,true,false,false,false,true,true,true,true,true,false,true,false,false,false,false,false,true,false,true,true,false,true,true,false,false,false,false,false,false,false,false,false,false,false,false],"id":37,"left_children":[1,3,5,7,9,11,13,15,17,19,21,-1,-1,-1,23,25,27,29,31,-1,33,-1,-1,-1,-1,-1,35,-1,37,39,-1,41,43,-1,-1,-1,-1,-1,-1,-1,-1,-1,-1,-1,-1],"loss_changes":[1.1747054E-1,2.0071803E-1,9.986843E-2,1.3286448E-1,3.271449E-1,7.181983E-2,3.9793953E-2,2.6128843E-1,2.4759105E-1,4.0353008E-2,4.8196375E-2,0E0,0E0,0E0,5.0958663E-2,1.4007765E-1,2.1915604E-1,5.892713E-1,2.2219412E-1,0E0,4.084014E-2,0E0,0E0,0E0,0E0,0E0,2.7610004E-2,0E0,2.4119928E-1,2.448948E-1,0E0,2.703748E-1,1.5802447E-1,0E0,0E0,0E0,0E0,0E0,0E0,0E0,0E0,0E0,0E0,0E0,0E0],"parents":[2147483647,0,0,1,1,2,2,3,3,4,4,5,5,6,6,7,7,8,8,9,9,10,10,14,14,15,15,16,16,17,17,18,18,20,20,26,26,28,28,29,29,31,31,32,32],"right_children":[2,4,6,8,10,12,14,16,18,20,22,-1,-1,-1,24,26,28,30,32,-1,34,-1,-1,-1,-1,-1,36,-1,38,40,-1,42,44,-1,-1,-1,-1,-1,-1,-1,-1,-1,-1,-1,-1],"split_conditions":[1.3470473E0,9.548319E-1,-1.9972038E-1,-3.429157E-1,-1.3230057E0,1.5872046E0,9.814803E-1,-9.9266636E-1,5.600978E-1,9.280032E-1,1.1698513E0,2.4128724E-2,-2.4570925E-2,6.338501E-3,1.2456305E-1,-6.886861E-1,-1.5886056E0,4.3890142E-1,1.4064154E-1,-1.2556458E-2,7.0386744E-1,-8.865052E-2,-3.399811E-2,9.023438E-2,2.690918E-2,4.1345216E-2,-1.0187504E0,-5.10006E-2,2.4151778E-1,-3.0603734E-1,-1.01676516E-1,6.682761E-1,6.5009296E-1,-3.7902833E-3,6.269837E-2,-1.98967E-2,-6.661377E-2,3.5756927E-2,-2.5226593E-3,-2.9035723E-2,1.9240825E-2,-5.0994875E-3,9.833863E-2,-2.1603141E-2,1.5581895E-2],"split_indices":[38,38,28,28,40,38,2,43,46,5,14,0,0,0,33,21,0,46,34,0,0,0,0,0,0,0,7,0,20,4,0,15,45,0,0,0,0,0,0,0,0,0,0,0,0],"split_type":[0,0,0,0,0,0,0,0,0,0,0,0,0,0,0,0,0,0,0,0,0,0,0,0,0,0,0,0,0,0,0,0,0,0,0,0,0,0,0,0,0,0,0,0,0],"sum_hessian":[1.94E2,1.77E2,1.7E1,1.64E2,1.3E1,9E0,8E0,7.4E1,9E1,4E0,9E0,5E0,4E0,2E0,6E0,8E0,6.6E1,4.2E1,4.8E1,1E0,3E0,4E0,5E0,2E0,4E0,1E0,7E0,3E0,6.3E1,3.6E1,6E0,8E0,4E1,1E0,2E0,3E0,4E0,4E1,2.3E1,1.9E1,1.7E1,4E0,4E0,1.7E1,2.3E1],"tree_param":{"num_deleted":"0","num_feature":"48","num_nodes":"45","size_leaf_vector":"0"}},{"base_weights":[3.751393E-3,5.9476852E-2,-4.046063E-3,-4.2999268E-2,8.870737E-2,-1.02350086E-1,3.966427E-3,4.985555E-2,-1.01890564E-1,2.2354126E-3,1.663086E-1,2.403768E-2,-1.2751493E-1,1.1539374E-1,-2.6573383E-3,-2.8845651E-2,5.606842E-2,-6.0424805E-3,1.861301E-1,4.8573813E-3,-1.574707E-1,-1.84021E-2,1.5625E-1,-4.8568E-2,1.4738203E-2,-1.0719299E-3,-4.940796E-2,6.641642E-2,1.2512207E-2,7.6538086E-2,2.2816975E-1,1.3328552E-2,-6.0424805E-3,-1.7415945E-1,-6.604004E-2,-4.7424316E-2,1.9821167E-2,-6.289858E-3,-1.8322906E-1,2.953949E-1,9.501371E-3,1.2832642E-2,-9.984334E-3,8.856201E-2,-6.4708166E-2,-2.3280907E-1,1.0060628E-2,6.120461E-2,-1.75428E-2],"categories":[],"categories_nodes":[],"categories_segments":[],"categories_sizes":[],"default_left":[true,true,true,true,true,true,true,false,false,true,true,false,true,true,true,true,true,false,true,true,true,true,false,true,true,true,false,false,false,false,false,false,false,false,false,false,false,true,true,false,true,false,false,false,false,false,false,false,false],"id":38,"left_children":[1,3,5,7,9,11,13,-1,-1,15,17,-1,19,21,23,25,27,-1,29,31,33,35,-1,37,39,41,-1,-1,-1,-1,-1,-1,-1,-1,-1,-1,-1,43,45,-1,47,-1,-1,-1,-1,-1,-1,-1,-1],"loss_changes":[8.497142E-2,7.570468E-2,1.3588348E-1,3.7889853E-2,1.271245E-1,4.441203E-2,1.1839758E-1,0E0,0E0,1.83492E-2,3.528726E-2,0E0,4.4383362E-2,5.2072905E-2,1.22109205E-1,3.9446806E-3,9.7186305E-4,0E0,2.400121E-2,3.5754128E-4,2.231285E-3,4.267977E-3,0E0,2.3796275E-1,1.6033584E-1,6.238181E-4,0E0,0E0,0E0,0E0,0E0,0E0,0E0,0E0,0E0,0E0,0E0,1.885865E-1,9.817523E-2,0E0,1.5488353E-1,0E0,0E0,0E0,0E0,0E0,0E0,0E0,0E0],"parents":[2147483647,0,0,1,1,2,2,3,3,4,4,5,5,6,6,9,9,10,10,12,12,13,13,14,14,15,15,16,16,18,18,19,19,20,20,21,21,23,23,24,24,25,25,37,37,38,38,40,40],"right_children":[2,4,6,8,10,12,14,-1,-1,16,18,-1,20,22,24,26,28,-1,30,32,34,36,-1,38,40,42,-1,-1,-1,-1,-1,-1,-1,-1,-1,-1,-1,44,46,-1,48,-1,-1,-1,-1,-1,-1,-1,-1],"split_conditions":[-8.262427E-1,-4.7645038E-1,-7.069055E-1,-1.4620534E0,-1.0149331E0,-1.6618202E0,-6.5295756E-1,1.4956665E-2,-3.0567171E-2,1.6092756E0,-1.3955698E0,7.2113043E-3,-8.102037E-1,-6.9711125E-1,-3.2348606E-1,6.3835055E-1,1.0502884E0,-1.8127442E-3,-9.7984034E-1,-3.08407E-1,-8.234686E-2,-2.1004957E-1,4.6875E-2,-3.7330025E-1,-1.5001752E0,-2.4865284E0,-1.4822388E-2,1.9924928E-2,3.7536623E-3,2.2961427E-2,6.845093E-2,3.998566E-3,-1.8127442E-3,-5.2247837E-2,-1.9812012E-2,-1.4227295E-2,5.9463503E-3,-4.7451726E-1,-1.6823262E-1,8.861847E-2,1.0711378E-1,3.8497925E-3,-2.9953003E-3,2.6568605E-2,-1.941245E-2,-6.9842726E-2,3.0181885E-3,1.8361384E-2,-5.26284E-3],"split_indices":[45,28,45,7,21,46,45,0,0,14,0,0,45,45,45,0,0,0,10,0,10,0,0,45,0,7,0,0,0,0,0,0,0,0,0,0,0,28,28,0,34,0,0,0,0,0,0,0,0],"split_type":[0,0,0,0,0,0,0,0,0,0,0,0,0,0,0,0,0,0,0,0,0,0,0,0,0,0,0,0,0,0,0,0,0,0,0,0,0,0,0,0,0,0,0,0,0,0,0,0,0],"sum_hessian":[1.94E2,2.3E1,1.71E2,5E0,1.8E1,1.2E1,1.59E2,2E0,3E0,9E0,9E0,2E0,1E1,8E0,1.51E2,6E0,3E0,1E0,8E0,2E0,8E0,2E0,6E0,4.1E1,1.1E2,3E0,3E0,2E0,1E0,3E0,5E0,1E0,1E0,6E0,2E0,1E0,1E0,3.2E1,9E0,1E0,1.09E2,1E0,2E0,1.2E1,2E1,7E0,2E0,3.7E1,7.2E1],"tree_param":{"num_deleted":"0","num_feature":"48","num_nodes":"49","size_leaf_vector":"0"}},{"base_weights":[3.1408065E-3,1.4686584E-4,1.4606476E-1,1.0361027E-2,-3.344964E-2,3.2348633E-2,1.7318726E-1,2.9659967E-4,1.2439982E-1,-7.038389E-2,2.5861952E-2,1.1232178E-2,-1.04876004E-1,6.5053306E-3,2.0768084E-1,-9.5575966E-2,4.5433044E-3,2.116394E-1,-2.5402833E-2,-9.0988325E-3,6.8188295E-2,2.1240234E-2,-1.448349E-1,3.7164308E-2,-7.3394775E-2,2.500356E-1,-2.3223877E-2,-1.6549852E-1,-3.9816048E-2,2.5677491E-2,-2.3010254E-2,2.2012329E-2,-1.001943E-1,8.640289E-3,-1.0981532E-1,1.6373292E-1,2.5536856E-2,-4.119873E-2,5.5786133E-2,-1.8293507E-1,-7.014771E-2,1.8722534E-2,5.54657E-2,-6.932068E-2,-2.2857666E-1,1.2512207E-3,-1.05773926E-1,-8.392334E-4,-3.012085E-2,-3.0084228E-2,6.1757404E-2],"categories":[],"categories_nodes":[],"categories_segments":[],"categories_sizes":[],"default_left":[true,true,true,true,true,false,false,true,true,true,true,true,true,true,true,true,true,false,true,true,true,true,true,true,false,false,false,true,true,false,true,true,false,false,false,false,false,false,false,false,false,false,false,false,false,false,false,false,false,false,false],"id":39,"left_children":[1,3,5,7,9,-1,-1,11,13,15,17,19,21,23,25,27,29,-1,31,33,35,37,39,41,-1,-1,-1,43,45,-1,47,49,-1,-1,-1,-1,-1,-1,-1,-1,-1,-1,-1,-1,-1,-1,-1,-1,-1,-1,-1],"loss_changes":[8.342019E-2,6.6233315E-2,6.734684E-3,1.6982791E-1,1.0039858E-1,0E0,0E0,1.5874487E-1,1.1646944E-1,5.328624E-2,1.7680538E-1,1.4536735E-1,6.8589374E-2,1.7425599E-2,7.4266195E-2,7.528691E-2,5.249422E-3,0E0,5.5399254E-2,1.6710469E-1,1.3029756E-1,1.0926358E-2,1.562348E-2,6.4909225E-4,0E0,0E0,0E0,3.8755387E-2,3.5345577E-2,0E0,6.0531823E-4,2.256374E-2,0E0,0E0,0E0,0E0,0E0,0E0,0E0,0E0,0E0,0E0,0E0,0E0,0E0,0E0,0E0,0E0,0E0,0E0,0E0],"parents":[2147483647,0,0,1,1,2,2,3,3,4,4,7,7,8,8,9,9,10,10,11,11,12,12,13,13,14,14,15,15,16,16,18,18,19,19,20,20,21,21,22,22,23,23,27,27,28,28,30,30,31,31],"right_children":[2,4,6,8,10,-1,-1,12,14,16,18,20,22,24,26,28,30,-1,32,34,36,38,40,42,-1,-1,-1,44,46,-1,48,50,-1,-1,-1,-1,-1,-1,-1,-1,-1,-1,-1,-1,-1,-1,-1,-1,-1,-1,-1],"split_conditions":[2.2713466E0,-1.723095E-2,2.4540731E-1,-9.499733E-2,7.7310693E-1,9.70459E-3,5.195618E-2,4.4475174E-1,2.1696901E-1,1.3669465E0,1.2498408E-2,4.43425E-1,6.2515587E-1,8.403899E-1,5.9799623E-1,5.9873726E-2,1.3129846E0,6.349182E-2,1.1199896E0,-2.3022713E-1,-4.2522243E-1,-3.9587933E-1,-1.1994855E-1,1.1037668E0,-2.2018433E-2,7.501069E-2,-6.967163E-3,-1.0314547E0,6.227858E-1,7.7032475E-3,-1.3884008E-2,4.4669437E-1,-3.005829E-2,2.5920868E-3,-3.2944597E-2,4.911988E-2,7.661057E-3,-1.235962E-2,1.673584E-2,-5.4880526E-2,-2.1044314E-2,5.6167603E-3,1.663971E-2,-2.0796204E-2,-6.8573E-2,3.7536622E-4,-3.173218E-2,-2.5177002E-4,-9.036255E-3,-9.025269E-3,1.8527223E-2],"split_indices":[10,28,0,28,32,0,0,45,8,46,38,15,15,10,5,0,10,0,39,7,8,0,0,7,0,0,0,0,39,0,0,22,0,0,0,0,0,0,0,0,0,0,0,0,0,0,0,0,0,0,0],"split_type":[0,0,0,0,0,0,0,0,0,0,0,0,0,0,0,0,0,0,0,0,0,0,0,0,0,0,0,0,0,0,0,0,0,0,0,0,0,0,0,0,0,0,0,0,0,0,0,0,0,0,0],"sum_hessian":[1.94E2,1.91E2,3E0,1.47E2,4.4E1,1E0,2E0,1.36E2,1.1E1,2.7E1,1.7E1,1.24E2,1.2E1,5E0,6E0,2E1,7E0,3E0,1.4E1,9.2E1,3.2E1,3E0,9E0,4E0,1E0,5E0,1E0,8E0,1.2E1,4E0,3E0,9E0,5E0,7.9E1,1.3E1,9E0,2.3E1,1E0,2E0,5E0,4E0,3E0,1E0,4E0,4E0,8E0,4E0,1E0,2E0,4E0,5E0],"tree_param":{"num_deleted":"0","num_feature":"48","num_nodes":"51","size_leaf_vector":"0"}},{"base_weights":[2.2280961E-3,4.3747106E-4,1.7480469E-1,1.0907288E-1,-2.4236578E-3,1.14479065E-2,2.4978638E-1,-5.869987E-2,4.9165804E-3,-3.9146423E-2,4.1361492E-2,-1.7044449E-1,4.8105875E-3,9.279741E-2,-3.0016776E-3,-4.0359497E-3,-1.9364057E-1,-1.8938446E-1,3.2209124E-2,1.3989535E-1,-5.9921265E-2,1.9650269E-1,-5.556562E-3,-2.1029918E-1,-4.6844482E-2,-8.5622154E-2,5.898285E-2,-8.453369E-3,1.965828E-1,1.626587E-2,-9.073893E-2,4.9370177E-2,-1.4059561E-2],"categories":[],"categories_nodes":[],"categories_segments":[],"categories_sizes":[],"default_left":[true,true,false,true,true,true,false,true,true,false,false,true,true,true,true,false,true,false,true,true,true,false,true,false,false,false,false,false,false,false,false,false,false],"id":40,"left_children":[1,3,-1,5,7,9,-1,11,13,-1,-1,15,17,19,21,-1,23,-1,25,27,29,-1,31,-1,-1,-1,-1,-1,-1,-1,-1,-1,-1],"loss_changes":[6.0182422E-2,6.056342E-2,0E0,6.582622E-2,7.877395E-2,7.672985E-3,0E0,1.5695289E-1,1.1787942E-1,0E0,0E0,3.0098692E-2,8.5909806E-2,1.0908099E-1,8.060672E-2,0E0,7.2665513E-3,0E0,4.921719E-2,9.416638E-2,1.0867587E-2,0E0,7.308563E-2,0E0,0E0,0E0,0E0,0E0,0E0,0E0,0E0,0E0,0E0],"parents":[2147483647,0,0,1,1,3,3,4,4,5,5,7,7,8,8,11,11,12,12,13,13,14,14,16,16,18,18,19,19,20,20,22,22],"right_children":[2,4,-1,6,8,10,-1,12,14,-1,-1,16,18,20,22,-1,24,-1,26,28,30,-1,32,-1,-1,-1,-1,-1,-1,-1,-1,-1,-1],"split_conditions":[1.7951351E0,-1.5521511E0,5.2441407E-2,-1.5098422E0,-1.1423991E0,-1.5886056E0,7.493591E-2,4.9329513E-1,-9.8074687E-1,-1.1743927E-2,1.2408448E-2,-5.857798E-1,-6.075034E-1,7.9913145E-1,-1.2574978E0,-1.210785E-3,-2.1666928E-1,-5.681534E-2,-1.6196977E0,-1.0369759E0,-9.7090435E-1,5.8950808E-2,-1.0834866E0,-6.308976E-2,-1.4053346E-2,-2.5686648E-2,1.7694855E-2,-2.536011E-3,5.897484E-2,4.879761E-3,-2.722168E-2,1.4811054E-2,-4.2178687E-3],"split_indices":[0,23,0,1,23,0,0,18,36,0,0,7,28,19,14,0,4,0,0,27,0,0,43,0,0,0,0,0,0,0,0,0,0],"split_type":[0,0,0,0,0,0,0,0,0,0,0,0,0,0,0,0,0,0,0,0,0,0,0,0,0,0,0,0,0,0,0,0,0],"sum_hessian":[1.94E2,1.93E2,1E0,4E0,1.89E2,3E0,1E0,2.1E1,1.68E2,1E0,2E0,7E0,1.4E1,1.3E1,1.55E2,1E0,6E0,1E0,1.3E1,1E1,3E0,1E0,1.54E2,5E0,1E0,2E0,1.1E1,3E0,7E0,1E0,2E0,2E1,1.34E2],"tree_param":{"num_deleted":"0","num_feature":"48","num_nodes":"33","size_leaf_vector":"0"}},{"base_weights":[2.0098563E-3,-8.994941E-3,2.4675846E-2,3.6734557E-3,-1.01070404E-1,1.5901692E-1,1.0595807E-2,-8.75473E-3,7.2514854E-2,-1.7980957E-1,-1.984999E-2,2.3766072E-1,6.0279846E-2,8.604431E-2,-6.557854E-3,-1.3869767E-3,-1.8523407E-1,1.0703125E-1,-7.5050354E-2,-6.0310364E-2,-2.3944703E-1,-5.2978516E-2,6.406657E-2,1.00599015E-2,1.7521362E-1,-1.0016632E-1,1.7245748E-3,-9.416497E-3,1.219635E-1,1.439209E-2,1.3940984E-1,-3.4332275E-3,-7.8125E-2,8.502197E-2,1.1077881E-2,4.2621613E-2,-2.5016785E-2,2.5421143E-2,2.0630646E-1,6.5322876E-2,-9.448242E-3,3.3342518E-2,-3.7499838E-2,-9.531657E-3,1.90094E-1,4.0008545E-2,-4.4036865E-2,1.5029907E-2,1.5034485E-1,-4.093933E-2,-6.0628257E-3,1.2661743E-1,1.5481567E-2,-5.788269E-2,6.4805555E-3],"categories":[],"categories_nodes":[],"categories_segments":[],"categories_sizes":[],"default_left":[true,true,true,true,true,true,true,true,true,true,true,false,false,true,true,true,false,true,false,true,false,false,true,true,true,false,true,true,true,true,true,false,false,false,false,false,true,false,false,true,true,false,false,false,false,false,false,false,false,false,false,false,false,false,false],"id":41,"left_children":[1,3,5,7,9,11,13,15,17,19,21,-1,-1,23,25,27,-1,29,-1,31,-1,-1,33,35,37,-1,39,41,43,45,47,-1,-1,-1,-1,-1,49,-1,-1,51,53,-1,-1,-1,-1,-1,-1,-1,-1,-1,-1,-1,-1,-1,-1],"loss_changes":[4.886171E-2,1.5434247E-1,1.19372874E-1,1.0073697E-1,9.8754436E-2,3.2264203E-2,7.692313E-2,1.297687E-1,9.9714294E-2,4.2571902E-2,2.8414438E-2,0E0,0E0,7.276762E-2,3.8162712E-2,9.722165E-2,0E0,4.2986482E-2,0E0,3.7847608E-3,0E0,0E0,2.389335E-3,9.061354E-3,1.8042818E-2,0E0,3.3303507E-2,1.117254E-1,5.5564888E-2,9.245564E-3,1.2701377E-2,0E0,0E0,0E0,0E0,0E0,9.589731E-4,0E0,0E0,1.9424772E-2,3.1235212E-2,0E0,0E0,0E0,0E0,0E0,0E0,0E0,0E0,0E0,0E0,0E0,0E0,0E0,0E0],"parents":[2147483647,0,0,1,1,2,2,3,3,4,4,5,5,6,6,7,7,8,8,9,9,10,10,13,13,14,14,15,15,17,17,19,19,22,22,23,23,24,24,26,26,27,27,28,28,29,29,30,30,36,36,39,39,40,40],"right_children":[2,4,6,8,10,12,14,16,18,20,22,-1,-1,24,26,28,-1,30,-1,32,-1,-1,34,36,38,-1,40,42,44,46,48,-1,-1,-1,-1,-1,50,-1,-1,52,54,-1,-1,-1,-1,-1,-1,-1,-1,-1,-1,-1,-1,-1,-1],"split_conditions":[5.567797E-1,4.7957575E-1,6.132238E-1,2.2877203E-1,-1.556652E-1,-1.13318965E-1,6.299513E-1,1.1934366E0,8.150598E-1,-4.312874E-1,9.0389884E-1,7.129822E-2,1.8083954E-2,4.4673204E-1,7.3143506E-1,1.0138252E0,-5.5570222E-2,-9.683062E-1,-2.2515107E-2,-2.3173398E-1,-7.183411E-2,-1.5893556E-2,1.1506114E0,3.7929364E-2,-5.2566147E-1,-3.0049898E-2,7.885534E-1,-8.352896E-1,7.0965683E-1,1.0567386E0,-3.1991113E-2,-1.0299683E-3,-2.34375E-2,2.5506593E-2,3.3233643E-3,1.2786484E-2,4.8875663E-1,7.626343E-3,6.189194E-2,2.8315553E-1,-1.025034E0,1.0002756E-2,-1.1249952E-2,-2.8594972E-3,5.70282E-2,1.2002564E-2,-1.321106E-2,4.508972E-3,4.5103457E-2,-1.22818E-2,-1.8188477E-3,3.798523E-2,4.6444703E-3,-1.7364807E-2,1.9441667E-3],"split_indices":[20,44,20,44,45,1,44,22,31,7,0,0,0,44,44,22,0,9,0,0,0,0,0,0,4,0,44,43,15,1,20,0,0,0,0,0,0,0,0,19,41,0,0,0,0,0,0,0,0,0,0,0,0,0,0],"split_type":[0,0,0,0,0,0,0,0,0,0,0,0,0,0,0,0,0,0,0,0,0,0,0,0,0,0,0,0,0,0,0,0,0,0,0,0,0,0,0,0,0,0,0,0,0,0,0,0,0,0,0,0,0,0,0],"sum_hessian":[1.94E2,1.31E2,6.3E1,1.16E2,1.5E1,5E0,5.8E1,9.9E1,1.7E1,7E0,8E0,2E0,3E0,1E1,4.8E1,9.6E1,3E0,1.4E1,3E0,3E0,4E0,6E0,2E0,6E0,4E0,3E0,4.5E1,9.1E1,5E0,4E0,1E1,1E0,2E0,1E0,1E0,3E0,3E0,1E0,3E0,6E0,3.9E1,3.6E1,5.5E1,2E0,3E0,3E0,1E0,1E0,9E0,1E0,2E0,2E0,4E0,9E0,3E1],"tree_param":{"num_deleted":"0","num_feature":"48","num_nodes":"55","size_leaf_vector":"0"}},{"base_weights":[1.8895859E-3,7.778422E-2,-1.7732019E-3,-3.970947E-2,1.7972107E-1,-1.7940266E-1,1.1168609E-3,-5.9577942E-2,1.9882202E-2,2.0415115E-1,4.1000366E-2,-6.660843E-2,4.1544195E-3,-2.2574289E-2,-1.874237E-1,6.290012E-2,-2.4392265E-3,-4.761505E-2,8.110046E-3,1.00020185E-1,-2.801005E-2,-3.327789E-2,1.1349814E-2,-6.032308E-3,2.5268555E-2,-1.2123108E-2,1.3487549E-1,-6.147003E-2,2.5939941E-2,-5.622245E-2,2.973829E-2,6.389476E-2,-5.2788313E-3],"categories":[],"categories_nodes":[],"categories_segments":[],"categories_sizes":[],"default_left":[true,true,true,true,true,false,true,false,false,false,false,true,true,true,false,true,true,false,true,true,true,true,true,false,false,false,false,false,false,false,false,false,false],"id":42,"left_children":[1,3,5,7,9,-1,11,-1,-1,-1,-1,13,15,17,-1,19,21,-1,23,25,27,29,31,-1,-1,-1,-1,-1,-1,-1,-1,-1,-1],"loss_changes":[5.4345187E-2,1.1492905E-1,9.6198745E-2,7.104517E-3,8.5745305E-3,0E0,3.833484E-2,0E0,0E0,0E0,0E0,3.832902E-2,6.910144E-2,5.764674E-3,0E0,6.354422E-2,6.884064E-2,0E0,1.1230746E-3,5.244936E-2,1.2425523E-2,7.396588E-2,9.8197445E-2,0E0,0E0,0E0,0E0,0E0,0E0,0E0,0E0,0E0,0E0],"parents":[2147483647,0,0,1,1,2,2,3,3,4,4,6,6,11,11,12,12,13,13,15,15,16,16,18,18,19,19,20,20,21,21,22,22],"right_children":[2,4,6,8,10,-1,12,-1,-1,-1,-1,14,16,18,-1,20,22,-1,24,26,28,30,32,-1,-1,-1,-1,-1,-1,-1,-1,-1,-1],"split_conditions":[-1.49918E0,-1.7166638E0,-1.659744E0,-1.5886056E0,-1.5227876E0,-5.38208E-2,-1.8720735E0,-1.7873384E-2,5.964661E-3,6.124535E-2,1.230011E-2,-5.1863855E-1,-1.450689E0,-3.2329917E-1,-5.6227114E-2,-8.4134567E-1,-4.1713578E-1,-1.4284516E-2,6.283182E-1,-9.527492E-1,-1.106422E0,-3.321464E-1,-6.928979E-2,-1.8096925E-3,7.5805667E-3,-3.6369325E-3,4.046265E-2,-1.844101E-2,7.781983E-3,-1.6866736E-2,8.921487E-3,1.916843E-2,-1.5836494E-3],"split_indices":[30,17,17,0,0,0,40,0,0,0,0,8,40,4,0,10,19,0,0,21,3,22,10,0,0,0,0,0,0,0,0,0,0],"split_type":[0,0,0,0,0,0,0,0,0,0,0,0,0,0,0,0,0,0,0,0,0,0,0,0,0,0,0,0,0,0,0,0,0],"sum_hessian":[1.94E2,8E0,1.86E2,4E0,4E0,2E0,1.84E2,3E0,1E0,3E0,1E0,7E0,1.77E2,6E0,1E0,1.7E1,1.6E2,3E0,3E0,1.2E1,5E0,4.9E1,1.11E2,2E0,1E0,3E0,9E0,3E0,2E0,3.6E1,1.3E1,2.6E1,8.5E1],"tree_param":{"num_deleted":"0","num_feature":"48","num_nodes":"33","size_leaf_vector":"0"}}]},"name":"gbtree"},"learner_model_param":{"base_score":"5E-1","num_class":"0","num_feature":"48"},"objective":{"name":"reg:squarederror","reg_loss_param":{"scale_pos_weight":"1"}}},"version":[1,5,0]}